%YAML:1.0
cvHOGClassifier: !!opencv-object-detector-hog
   winSize: [ 48, 48 ]
   blockSize: [ 16, 16 ]
   blockStride: [ 8, 8 ]
   cellSize: [ 8, 8 ]
   nbins: 9
   derivAperture: 1
   winSigma: 4.
   histogramNormType: 0
   L2HysThreshold: 2.0000000000000001e-001
   gammaCorrection: 1
   nlevels: 64
   SVMDetector: [ 9.86330491e-003, -3.54888290e-002, -2.19858997e-003,
       1.17386533e-002, -4.20668609e-002, -7.82669988e-003,
       -1.22536998e-002, -4.33630422e-002, -1.04484186e-002,
       4.41724695e-002, -3.30335414e-003, 1.44300442e-002,
       1.56131340e-002, -7.13377669e-002, -1.11748120e-002,
       -1.23888599e-002, -5.21671996e-002, 2.70696953e-002,
       5.59394844e-002, 8.05056770e-005, 1.10764697e-003,
       2.57288571e-002, 1.18550742e-002, -2.15177611e-003,
       -9.31967609e-003, -1.24675343e-002, 3.64229530e-002,
       7.64433295e-002, 1.68472603e-002, 2.17305552e-002,
       3.76533419e-002, -1.31546631e-002, 5.23717748e-003,
       -3.75211984e-003, -7.38381268e-003, 6.01671524e-002,
       4.10591178e-002, -2.25088373e-002, -9.57539491e-003,
       -1.86808594e-003, -9.89171192e-002, -2.71856599e-002,
       -1.77450962e-002, -3.66966426e-002, 3.67038399e-002,
       3.25781479e-002, -5.35049625e-002, -6.49799220e-003,
       -3.25278612e-003, -1.17639285e-002, 2.40873452e-003,
       -1.87512971e-002, -3.41114253e-002, 3.39730233e-002,
       7.55628571e-002, -2.54071821e-002, 8.20271391e-003,
       1.84897091e-002, -3.99253815e-002, -2.27603558e-002,
       -2.06627743e-003, -8.44245404e-003, 7.62844309e-002,
       7.60865137e-002, -4.18352634e-002, -1.81461917e-003,
       3.17693651e-002, -1.97178495e-004, -4.48291423e-004,
       -1.42275039e-002, -1.18812714e-002, 8.58120993e-002,
       4.80089597e-002, -7.01318681e-002, -2.92821899e-002,
       -1.82203017e-002, -2.99314130e-002, -1.31797744e-002,
       -5.70848733e-002, -5.79276122e-002, 4.83768471e-002,
       5.04679121e-002, -7.56632611e-002, -5.64284250e-002,
       -3.62365544e-002, -4.27140705e-002, -2.79196855e-002,
       -7.14437142e-002, -7.53156096e-002, 5.99847473e-002,
       9.38364640e-002, -5.18740863e-002, -2.07703803e-002,
       1.41749624e-002, -8.84290319e-003, -5.62380813e-003,
       -5.07977195e-002, -3.68377045e-002, 9.57622007e-002,
       9.10346285e-002, -5.43394685e-002, -3.54370177e-002,
       -9.77041759e-003, 7.20313797e-003, -3.40827135e-003,
       -3.68902087e-002, -3.33974399e-002, 9.87980291e-002,
       7.79465139e-002, -6.32961690e-002, -5.73017672e-002,
       -3.54132801e-002, -5.70663959e-002, -2.88835336e-002,
       -4.28055637e-002, -5.05784228e-002, 8.61607119e-002,
       8.11953321e-002, -4.13810238e-002, -5.17570488e-002,
       -3.47180888e-002, -5.02124429e-002, -4.49984670e-002,
       -4.18031812e-002, -4.54195812e-002, 9.20760036e-002,
       1.00833528e-001, -5.22064045e-002, -5.46296127e-002,
       -1.44406799e-002, -1.83061268e-002, -2.74680555e-004,
       -1.38728973e-002, -2.27996409e-002, 1.14640839e-001,
       9.82734188e-002, -3.49542238e-002, -6.74291104e-002,
       -3.02555319e-002, -2.39905939e-002, -2.84512737e-003,
       -1.60780400e-002, -1.58397499e-002, 1.10024430e-001,
       6.52067438e-002, -4.37168889e-002, -5.47104068e-002,
       -1.69194285e-002, -7.85516296e-003, -2.38757487e-002,
       -4.86364178e-002, -4.59138714e-002, 6.53655082e-002,
       3.72457393e-002, -5.17615564e-002, -4.66000140e-002,
       -4.44396734e-002, 1.44619276e-004, -4.08775732e-002,
       -6.38591498e-002, -5.15753999e-002, 5.01508415e-002,
       9.75080580e-002, -2.70094164e-002, -6.64241388e-002,
       -2.04031710e-002, 4.21745470e-003, 9.34777968e-003,
       -1.63503475e-002, -1.59437026e-004, 1.02023832e-001,
       5.59245199e-002, -4.38224971e-002, -5.82875647e-002,
       -2.14135032e-002, 3.24690342e-002, -1.35844648e-002,
       -4.92453538e-002, -1.75477155e-002, 6.00832477e-002,
       1.70730194e-003, -1.35344947e-002, -2.08249781e-002,
       1.32485414e-002, 5.02120741e-002, -1.71750076e-002,
       -2.33213548e-002, -2.33914983e-002, 6.36941334e-003,
       2.16063671e-002, -2.22050622e-002, -2.09296308e-002,
       2.56205932e-003, -7.78684113e-003, -3.40493955e-003,
       -2.26722956e-002, -4.00378788e-003, 2.65363716e-002,
       -7.19587877e-003, -1.66852344e-002, -1.74756330e-002,
       1.02556869e-002, 7.26824328e-002, -1.49519043e-002,
       -1.06041245e-002, -1.46077592e-002, -1.75636671e-002,
       1.55813564e-002, -2.63902154e-002, -2.42589395e-002,
       1.63267122e-003, 2.68837810e-003, -8.64951964e-003,
       -5.52982697e-003, -5.87427896e-003, 2.54004076e-002,
       2.47475524e-002, -3.67414244e-002, 4.58541443e-004,
       2.06202846e-002, -5.07263048e-003, 9.39064566e-003,
       -5.33991167e-003, -1.11639742e-002, 4.62428853e-002,
       3.29275355e-002, -3.44137363e-002, -6.55956799e-003,
       4.78192717e-002, -1.87529519e-003, -5.57839125e-003,
       -1.99159477e-002, -2.72107944e-002, 3.10912766e-002,
       2.36264169e-002, -3.63025069e-002, -2.59367842e-002,
       1.31627629e-002, -8.13477021e-003, 2.79076416e-002,
       -9.76540428e-003, -7.69972242e-003, 2.07726154e-002,
       1.78320948e-002, -3.22775766e-002, -2.71815155e-002,
       3.45279723e-002, 6.57913228e-003, 1.34691913e-002,
       -2.50757812e-003, -1.09532150e-003, 1.81343816e-002,
       5.05709238e-002, -3.83035205e-002, -1.07603688e-002,
       4.39510308e-002, 1.23832030e-002, 8.63827486e-003,
       -2.66752280e-002, -3.14117223e-002, 4.99522537e-002,
       4.03114371e-002, -4.56645824e-002, -1.78608373e-002,
       3.32945548e-002, 8.24313052e-003, 2.51760483e-002,
       -2.53777974e-003, -2.05001216e-002, 6.32543638e-002,
       3.75658982e-002, -3.19112130e-002, -2.09918153e-002,
       1.64158735e-002, -1.69760995e-002, 1.94564760e-002,
       -3.07211792e-003, -1.92249790e-002, 4.02663946e-002,
       1.83052868e-002, -4.53115739e-002, -1.84018668e-002,
       3.18214111e-002, 1.51221650e-002, 5.17182238e-002,
       -3.70161934e-003, -5.25424108e-002, 3.21156755e-002,
       6.91137835e-002, -4.99711968e-002, -4.11003157e-002,
       1.95985362e-002, -9.56284441e-003, 6.61706273e-003,
       -1.18683716e-002, -4.02611829e-002, 7.27183372e-002,
       6.56263605e-002, -5.52366078e-002, -6.05672896e-002,
       2.04021693e-003, -4.88860253e-003, 1.13101089e-002,
       -2.49690022e-002, -4.26406190e-002, 6.10645562e-002,
       2.82462854e-002, -5.49036749e-002, -5.40284589e-002,
       1.53614860e-002, -1.07533876e-002, 2.19439715e-002,
       -1.07315918e-002, -5.53173013e-002, 2.70814802e-002,
       2.83058602e-002, -6.50795922e-002, -7.14819953e-002,
       1.37882372e-002, -2.21827347e-002, -7.88820721e-003,
       -2.58869864e-002, -3.35619301e-002, 2.86127888e-002,
       5.50872311e-002, -4.07265536e-002, -5.43966442e-002,
       6.05170717e-005, -9.85121354e-003, 1.44485608e-002,
       -1.75720416e-002, -2.33159196e-002, 5.58183491e-002,
       3.04761268e-002, -5.73097803e-002, -5.51093854e-002,
       2.32470687e-003, 4.41315658e-002, -1.02976877e-002,
       -4.07969952e-002, -2.86474638e-002, 1.92427896e-002,
       2.25135684e-002, -5.83410896e-002, -6.80076554e-002,
       1.34968515e-002, -2.83721481e-002, 1.91005822e-002,
       -3.08499727e-002, -2.77320351e-002, 3.84705737e-002,
       2.02423204e-002, -5.78535683e-002, -6.17440715e-002,
       2.65191379e-003, 1.10783102e-002, 6.18000655e-003,
       -3.33441570e-002, -4.15513068e-002, 1.56573218e-003,
       -3.18108359e-003, -2.83396244e-002, -3.21907848e-002,
       8.37287400e-003, 7.74473920e-002, -1.54137406e-002,
       -1.99507717e-002, -2.25875191e-002, -8.59313644e-003,
       2.07361821e-002, -2.93692276e-002, -3.70042436e-002,
       1.17132429e-003, 1.63324866e-002, 1.21583771e-002,
       4.47749300e-003, -1.43329147e-002, 3.02663501e-002,
       -1.66469496e-002, -2.99138781e-002, -3.32757272e-002,
       2.49123573e-002, 5.04028238e-002, 5.66958077e-003,
       -3.00189052e-002, -3.47285680e-002, -1.99776385e-002,
       2.64052791e-003, -2.66721584e-002, -1.58560462e-002,
       1.81781966e-002, 3.28215510e-002, 2.43895873e-002,
       -1.50261242e-002, -5.57200704e-003, 3.03748045e-002,
       1.21734384e-002, -3.34998704e-002, -1.41824186e-002,
       4.60639484e-002, 7.94371311e-003, 5.51719218e-002,
       7.66417850e-003, -1.64248049e-003, 3.11151315e-002,
       2.09995471e-002, -3.27917822e-002, -1.43239051e-002,
       4.14847843e-002, -5.72276907e-003, 3.40409316e-002,
       1.71350427e-002, 1.70514993e-002, 3.42109315e-002,
       5.18980715e-003, -4.42716628e-002, -7.37695303e-003,
       4.53390442e-002, 3.34485695e-002, 5.69054894e-002,
       1.92830618e-002, 1.10340426e-002, 4.46771309e-002,
       -1.12540498e-002, -4.98115346e-002, -1.58117414e-002,
       5.21105453e-002, -8.60612746e-003, 4.69232425e-002,
       2.17137486e-002, 2.20596995e-002, 1.32252295e-002,
       4.46874239e-002, -1.87567603e-002, -5.86008374e-003,
       2.24099290e-002, -3.93657126e-002, 2.69217435e-002,
       8.76399688e-003, -2.03896482e-002, 4.40501422e-002,
       3.43447588e-002, -2.60117445e-002, -5.67932473e-003,
       3.07910498e-002, -9.49285179e-003, 6.30320609e-002,
       6.05817419e-003, -6.37383685e-002, 3.84391695e-002,
       3.35224122e-002, -2.14840155e-002, -5.65561641e-004,
       4.04908732e-002, -3.60038616e-002, 2.15729661e-002,
       5.81045495e-003, -1.37818241e-002, 2.42391508e-002,
       4.31646220e-002, -3.16920280e-002, -3.42025375e-003,
       3.48605439e-002, -9.19164624e-003, 3.03422641e-002,
       7.59549905e-003, -3.15534249e-002, 5.05997650e-002,
       4.12748940e-002, -3.21517102e-002, -3.75673771e-002,
       1.42543800e-002, -3.03768571e-002, 4.22595628e-002,
       -1.32750196e-003, -5.05230464e-002, 3.65533866e-002,
       3.84316705e-002, -4.43817712e-002, -5.37907891e-002,
       1.14855245e-002, -3.34503613e-002, -1.81396550e-003,
       -1.31305708e-002, -2.01742705e-002, 4.22995314e-002,
       2.34931614e-002, -4.16040905e-002, -2.93012317e-002,
       1.35637252e-002, -3.81423198e-002, 1.29818246e-002,
       -2.29616836e-002, -4.82818820e-002, 4.16484401e-002,
       4.33665514e-002, -4.74768281e-002, -3.92311625e-002,
       -9.79839265e-003, -5.37995584e-002, 3.64050176e-003,
       -2.84778606e-002, -3.26334983e-002, 5.45324348e-002,
       5.20113930e-002, -4.06362340e-002, -5.53754605e-002,
       -7.13568600e-003, -2.62940619e-002, 8.99414625e-003,
       -3.22865583e-002, -3.19561809e-002, 4.99236733e-002,
       3.32884192e-002, -3.74616347e-002, -4.20244224e-002,
       -5.32916654e-003, 1.96220502e-002, 4.04718565e-003,
       -2.56157760e-002, -2.13801470e-002, 2.11774074e-002,
       6.72163665e-002, -4.44875956e-002, -4.34583388e-002,
       -9.63492412e-003, -4.09963764e-002, 5.94765786e-003,
       -3.01378183e-002, -2.83480920e-002, 6.68868348e-002,
       1.89027246e-002, -5.64008355e-002, -3.93541344e-002,
       1.14256805e-002, -9.42741521e-003, -1.69690289e-002,
       -2.79223397e-002, -2.41256412e-002, 2.14012060e-002,
       -1.38628474e-002, -1.17843263e-002, -5.00843255e-003,
       4.71286848e-002, 6.97795823e-002, 1.12862475e-002,
       -1.78106483e-002, -2.14216784e-002, -1.59856975e-002,
       -1.25016773e-003, -1.18956994e-002, 4.17889532e-004,
       3.78806517e-002, 6.37425706e-002, 3.72654386e-002,
       3.24987981e-004, -7.28527503e-003, 1.86352246e-002,
       -2.55063642e-002, -3.31944861e-002, -2.89904363e-002,
       2.24130806e-002, 3.94735970e-002, 7.71999825e-003,
       -2.29916181e-002, -3.12762819e-002, -9.83265694e-003,
       -9.28776246e-003, -4.03835401e-002, -2.79426351e-002,
       1.36794494e-002, 3.10775936e-002, 1.96081288e-002,
       7.25416280e-003, -1.16087785e-002, 9.11605544e-003,
       -1.26162600e-002, -4.36375774e-002, -1.83847733e-002,
       3.33816446e-002, 4.95151505e-002, 3.75340320e-002,
       7.78216450e-003, 4.84160241e-003, 3.67235728e-002,
       -1.79118589e-002, -7.17564896e-002, -2.16094367e-002,
       3.23860832e-002, 3.85021381e-002, 2.96030361e-002,
       7.34539516e-003, -6.77324925e-003, 1.20389126e-002,
       -1.46418577e-002, -7.95096457e-002, -3.56083512e-002,
       1.81476045e-002, 1.31751364e-002, 3.61603387e-002,
       1.24849798e-002, -1.32490071e-002, 1.54203409e-002,
       -3.70226018e-002, -8.04725140e-002, -2.04114430e-002,
       4.13747914e-002, 3.94149795e-002, 2.06979886e-002,
       -1.11474097e-002, -2.46070325e-002, -1.08352145e-002,
       2.65114289e-002, -3.94925475e-002, -8.11385398e-004,
       3.41704972e-002, 1.91561598e-002, 2.06357520e-002,
       -1.57286006e-003, -2.27555614e-002, 2.36693360e-002,
       3.22999060e-002, -3.52477096e-002, -2.08927668e-003,
       2.73551196e-002, -3.65866944e-002, -1.20189050e-002,
       -1.27431061e-002, -1.77808832e-002, 4.54095304e-002,
       6.40215958e-003, -4.54420783e-002, -3.19658057e-003,
       3.85055915e-002, 1.06062321e-002, 1.66658480e-002,
       -1.95245910e-003, -2.35561412e-002, 2.03095600e-002,
       3.01711727e-002, -5.29923700e-002, -1.18715437e-002,
       1.73435807e-002, -2.46230606e-002, -2.49794703e-002,
       -2.50137616e-002, -3.50734368e-002, 4.58826013e-002,
       5.33841625e-002, -1.46142635e-002, 2.31416989e-003,
       3.05615645e-002, -3.48328836e-002, -4.16318979e-003,
       -7.74225499e-003, -1.16507467e-002, 6.81841075e-002,
       7.33253211e-002, -7.53949955e-003, -1.23452395e-003,
       3.64896632e-003, -9.23176575e-003, 2.20333915e-002,
       -4.41451650e-003, -1.39591806e-002, 6.73517808e-002,
       5.25560342e-002, -2.51378492e-002, -5.36628952e-003,
       1.28819039e-002, -5.51988259e-002, -2.72451919e-002,
       -2.62236334e-002, -3.08723543e-002, 5.97482845e-002,
       5.00262566e-002, -2.17183195e-002, -2.34169364e-002,
       -1.83082055e-002, -3.92324403e-002, -1.17474813e-002,
       -1.85932592e-002, -3.26058306e-002, 6.14207238e-002,
       6.77189529e-002, -6.71242923e-003, -1.47313962e-003,
       1.74615234e-002, -6.85911207e-003, 1.15999207e-002,
       -2.51310747e-002, -1.51246134e-002, 6.53397217e-002,
       4.16341005e-003, -4.45170440e-002, -3.62644568e-002,
       2.60521192e-002, 2.63008047e-002, -7.40100630e-003,
       -8.58348887e-003, -2.09947443e-003, 2.40484737e-002,
       5.77014089e-002, -3.00211255e-002, -3.44408788e-002,
       -6.99369004e-003, 4.84010205e-003, 1.52157331e-002,
       -1.23119820e-002, -1.49366949e-002, 6.32886216e-002,
       7.24923797e-003, -6.50626794e-002, -6.31770864e-002,
       -8.23542941e-004, 3.36415395e-002, 2.03565345e-003,
       -2.12729853e-002, -6.16540015e-003, 3.24984640e-002,
       1.80295052e-003, -4.61940318e-002, -4.88185510e-002,
       -1.11775426e-002, 1.66222584e-002, 2.03188099e-002,
       -3.67310713e-003, -4.57518268e-003, 1.85572580e-002,
       2.18179896e-002, -3.79828326e-002, -2.85387766e-002,
       4.74524824e-003, 2.56315209e-002, 2.26442814e-002,
       -2.24765460e-003, -4.14961623e-003, 3.74394953e-002,
       -4.87627201e-002, -4.68309484e-002, -4.44964208e-002,
       -4.79307538e-003, 2.04651114e-002, 2.66286526e-002,
       2.84106564e-003, 2.31117732e-003, -2.05696542e-002,
       -1.21780243e-002, -4.06077988e-002, -1.76357459e-002,
       1.94217674e-002, 2.74772961e-002, 3.10687795e-002,
       -1.65858269e-002, -1.33667234e-002, -2.98025599e-003,
       3.03544905e-002, -6.03200942e-002, -2.28658598e-002,
       9.36403964e-003, 5.63685503e-003, 2.55886279e-002,
       3.80952912e-003, -1.89978536e-002, 4.73532192e-002,
       1.42466752e-002, -4.19399068e-002, -1.28422985e-002,
       2.12852322e-002, -1.81432925e-002, 1.73093807e-002,
       2.73636240e-003, -9.10826121e-003, 2.80434396e-002,
       1.21576954e-002, -3.73744853e-002, -1.16549348e-002,
       3.16664912e-002, -3.06731788e-003, 1.42942732e-002,
       -1.08661568e-002, -2.76611894e-002, 1.92647874e-002,
       1.76198930e-002, -4.44430597e-002, -1.48982890e-002,
       2.61079501e-002, -6.42178282e-002, -7.88889267e-003,
       -3.16793029e-003, -2.58941725e-002, 3.37902009e-002,
       3.50219645e-002, -1.60156824e-002, -5.04245749e-004,
       4.68149148e-002, 6.69962843e-004, 2.73119453e-002,
       1.29320221e-002, 4.85613430e-003, 5.73130548e-002,
       4.26368341e-002, -2.67427620e-002, -1.16220722e-002,
       2.22082306e-002, -6.30357070e-003, 2.10982910e-003,
       -1.09082330e-002, -2.20284965e-002, 6.41610697e-002,
       4.43769712e-003, -3.43820453e-002, -1.89396217e-002,
       3.25559676e-002, -5.09830266e-002, 9.71208047e-003,
       4.82456060e-003, -7.19733071e-003, 3.43588106e-002,
       1.46933161e-002, -2.81407703e-002, -1.37775280e-002,
       -8.54137354e-003, -5.44270948e-002, -5.05378982e-003,
       -6.23229891e-003, -2.37008035e-002, 4.61625531e-002,
       7.74055198e-002, -6.12292206e-003, 3.52860335e-003,
       2.40003597e-002, -3.47999148e-002, -2.43513216e-003,
       -1.38316043e-002, -2.44085491e-002, 1.02193780e-001,
       6.91305250e-002, 1.95276679e-003, -5.84218651e-003,
       5.36469836e-003, -3.68293859e-002, 1.58504639e-002,
       -3.46543820e-004, -5.88849792e-003, 9.06952024e-002,
       3.89317162e-002, -2.71949880e-002, -1.58808120e-002,
       -1.40895192e-002, -6.55230135e-002, 1.09540354e-002,
       1.01896608e-002, -3.27526294e-002, 6.11258708e-002,
       2.62174197e-002, -2.99426392e-002, -2.34207772e-002,
       -1.68094737e-003, -5.73107898e-002, 1.80384554e-002,
       1.03410687e-002, -2.18114108e-002, 5.60051166e-002,
       4.21622731e-002, -2.08806805e-002, -2.64281239e-002,
       -1.94265954e-002, -1.08009530e-002, -8.39810236e-005,
       -1.47717334e-002, -3.97574203e-003, 6.48495182e-002,
       1.62360985e-002, -3.40089723e-002, -3.49829644e-002,
       1.23310890e-002, 6.06738701e-002, 1.23480707e-003,
       -3.03128306e-002, -1.43387597e-002, 3.86602879e-002,
       2.31303275e-002, -6.08944036e-002, -4.20161188e-002,
       -1.93742607e-002, -3.71035971e-002, -4.26547602e-003,
       -2.14811433e-002, -2.77592372e-002, 3.67160663e-002,
       5.56988968e-003, -6.00065589e-002, -3.90452668e-002,
       3.88747454e-002, 3.90251540e-002, -3.26016801e-003,
       -4.30784412e-002, -4.66538817e-002, -2.61076004e-003 ]
