%YAML:1.0
cvHOGClassifier: !!opencv-object-detector-hog
   winSize: [ 96, 96 ]
   blockSize: [ 16, 16 ]
   blockStride: [ 8, 8 ]
   cellSize: [ 8, 8 ]
   nbins: 9
   derivAperture: 1
   winSigma: 4.
   histogramNormType: 0
   L2HysThreshold: 2.0000000000000001e-001
   gammaCorrection: 1
   nlevels: 64
   SVMDetector: [ -1.44999111e-002, -8.29464989e-005, 2.69488757e-003,
       4.35933657e-003, 2.35514212e-002, 5.53187728e-003,
       5.40755689e-004, -5.77748008e-003, -1.33453319e-002,
       -1.22803552e-002, -2.34736086e-004, 4.72368812e-003,
       1.50444475e-003, -7.26820296e-003, 5.19770291e-003,
       7.75766978e-003, 4.81906906e-003, -1.05602033e-002,
       1.16434041e-003, 2.57893000e-003, 2.93074059e-003,
       1.20968251e-002, 2.33350173e-002, 7.91888125e-003,
       -3.11533362e-003, -1.36703183e-003, -1.13332608e-004,
       -6.30129874e-003, -3.19632614e-004, 3.07335961e-003,
       4.75306204e-003, -1.07370634e-002, -6.20959501e-004,
       -1.89449987e-003, 7.06857163e-003, 5.59164537e-003,
       -1.65047422e-002, 1.02899445e-003, 3.22817639e-003,
       3.67340492e-003, 6.79369969e-003, 8.70320201e-003,
       4.57911007e-003, 2.73693679e-003, -5.83930919e-003,
       -9.73490160e-003, 5.69179701e-003, 1.61033706e-003,
       -7.00313691e-003, -1.68516883e-003, -2.53662141e-003,
       7.49213947e-003, -1.37536437e-003, -1.04677752e-002,
       -1.10626745e-003, 6.42603403e-003, 1.05536208e-002,
       5.05184149e-003, 1.66900214e-002, 3.48307937e-003,
       3.71062104e-003, 5.80538530e-003, 5.18085063e-003,
       -6.94357965e-004, 6.35351148e-003, 1.79048274e-002,
       -3.03885294e-003, 1.38471471e-002, -1.27089862e-002,
       3.77799827e-003, 9.67958127e-004, -2.95959832e-003,
       -2.14162003e-003, 6.70547783e-003, 3.53535614e-003,
       -5.16312942e-003, -7.02518644e-003, -3.96940252e-003,
       4.04996984e-003, -2.34071235e-003, -1.23832505e-002,
       -1.41387584e-003, 7.96039216e-003, 4.60910349e-004,
       -3.47873894e-003, 6.04750589e-003, 9.85357474e-005,
       8.94108694e-003, 8.54694005e-003, -1.07788853e-002,
       8.34907230e-004, -5.24287438e-003, 7.79447099e-003,
       1.57539011e-003, 1.36985676e-002, -1.85881816e-002,
       -4.29237867e-003, -6.89529162e-003, -3.34547576e-003,
       -2.49562203e-003, -8.63013230e-003, -6.38282578e-003,
       8.13044258e-004, 4.24935063e-003, -1.07602347e-002,
       -6.52236212e-003, -5.38416719e-003, -6.91408338e-003,
       -2.20949319e-003, 6.74403319e-003, 1.73168432e-003,
       -1.06962388e-002, 2.68321554e-003, -5.78577491e-003,
       5.42335853e-004, 4.29328624e-003, -4.31784568e-003,
       -2.37707584e-003, 6.02660608e-003, 7.85879791e-003,
       9.20735486e-003, 2.54527498e-002, 3.81488423e-003,
       6.97412202e-003, 3.17382510e-003, -7.40146358e-003,
       4.97779064e-003, -5.98207396e-003, -4.78626462e-003,
       -8.97233002e-003, 1.76535593e-003, -1.31027754e-002,
       -4.99282498e-003, -6.40533864e-003, -7.12391268e-003,
       -1.24334767e-002, -3.73572228e-003, 7.42726680e-003,
       6.92566438e-003, 1.76159702e-002, -1.77370489e-003,
       1.86915323e-003, -6.15613954e-003, -8.77473690e-003,
       -1.83847453e-002, 6.43177191e-004, 6.87159458e-003,
       1.41313514e-002, 1.95528083e-002, 3.69154708e-003,
       8.61522183e-003, 6.49916939e-003, -1.47396401e-002,
       -9.33919009e-003, 4.33236826e-003, 5.01312967e-003,
       9.49832797e-003, 1.77445486e-002, -2.86081922e-003,
       3.84705327e-003, -7.86002056e-005, -1.17640356e-002,
       -2.43445598e-002, -2.71449797e-003, 6.12569973e-003,
       5.59921004e-003, 8.86478368e-003, 4.24997881e-003,
       4.19419305e-003, -8.75918602e-004, -1.47513403e-002,
       -8.63224640e-003, 9.69802844e-004, 2.02953443e-003,
       1.37907593e-002, 1.98800415e-002, 8.36107694e-003,
       8.63488764e-003, 3.50369234e-003, -6.39306707e-003,
       -6.08870946e-003, 5.69601217e-003, 8.20903294e-003,
       7.04431767e-003, 7.87447020e-003, 2.12843274e-003,
       6.21429225e-003, 3.98958327e-005, -6.70123892e-003,
       -7.17200432e-003, -6.67357643e-004, -1.36286253e-003,
       -1.13842236e-002, 8.85693729e-003, 1.20158400e-003,
       9.00882017e-003, 8.46315920e-003, -8.38902686e-003,
       -6.46902528e-003, 2.40010209e-003, 4.90907347e-003,
       1.43549200e-002, 1.78370904e-002, 1.26622838e-003,
       4.42727748e-003, 2.64130230e-003, -6.40367111e-003,
       -1.15257753e-002, -5.93938865e-003, -4.09152452e-003,
       -7.51035195e-003, 1.97750349e-002, -5.10602677e-003,
       -1.50319363e-003, 5.79411816e-003, -1.13376807e-002,
       1.61473174e-003, -1.93709217e-004, -3.46448785e-003,
       -2.20120489e-003, -5.58513217e-003, -6.72593853e-003,
       8.45658034e-003, 1.33777531e-002, -8.60310218e-004,
       6.27090037e-003, 1.77150988e-003, -9.03868955e-003,
       -6.66816672e-003, -9.15073138e-003, -2.28221342e-003,
       8.05086456e-003, 1.26192328e-002, 2.14526313e-003,
       2.02348834e-004, 4.44305973e-004, -1.50556653e-003,
       -3.22740828e-003, 5.54598961e-003, -3.10383528e-003,
       4.16310225e-003, 4.33669658e-003, -5.69234689e-005,
       1.24960365e-002, 4.32666391e-003, -5.45645505e-003,
       -4.51919017e-003, 1.04049139e-003, -2.95218197e-003,
       3.76925152e-003, 5.37085696e-004, 8.81308503e-003,
       6.83465414e-003, 5.36193000e-003, -6.32991642e-003,
       -1.01024751e-002, 5.37242275e-003, -1.82774081e-003,
       9.59943328e-003, 8.06552544e-003, -2.21957729e-004,
       9.19152144e-003, 1.10493470e-002, -2.47825705e-003,
       -1.02095287e-002, -2.01280937e-002, -4.10581846e-003,
       1.00539699e-002, 8.78147315e-003, 3.76233086e-003,
       1.35064116e-002, 3.96719854e-003, -7.06016459e-003,
       -9.28177964e-003, 1.22486223e-002, -2.54942314e-003,
       9.48233996e-003, 1.44975132e-003, 6.95577078e-003,
       1.68553013e-002, 9.39076953e-003, 4.83290059e-003,
       -1.67375300e-002, -1.17578926e-002, -4.38231789e-003,
       1.49534177e-002, 8.03201552e-003, 1.08610084e-002,
       -4.57687117e-003, 5.70113352e-003, -3.49386683e-004,
       -8.97806603e-003, -2.28187721e-002, -8.66877660e-003,
       6.72001019e-003, 5.61837666e-003, -6.49349811e-003,
       8.50068987e-004, 1.98083697e-003, 7.63960229e-003,
       -4.64721088e-004, 1.44530842e-002, -4.25493391e-003,
       1.28287040e-002, 9.38796345e-003, -2.67182919e-003,
       -1.71096425e-003, 7.02860812e-003, 4.54240572e-003,
       -9.79468599e-003, -8.16622376e-003, -8.73224903e-003,
       3.94612271e-003, 4.89587756e-003, 2.81192968e-003,
       -2.32765521e-003, 4.75721341e-003, 1.30416760e-002,
       3.85272503e-003, 2.75496878e-002, 1.08488905e-003,
       1.48567809e-002, 3.77745461e-003, -1.43085537e-003,
       -7.64667476e-003, -5.94604411e-004, 1.00403931e-003,
       -9.15194675e-003, -2.65818927e-002, -9.22646374e-003,
       5.90484263e-003, 3.45094898e-003, -1.25308596e-002,
       -3.56302226e-005, 5.00629004e-003, 9.48937435e-004,
       8.78171064e-003, 2.23683063e-002, 5.09605277e-003,
       4.91810171e-003, 2.52205390e-003, -2.88766902e-003,
       6.84718089e-003, 3.87926237e-003, 3.30476719e-003,
       -1.32389851e-002, -1.62257254e-002, -1.02038914e-002,
       3.08509218e-003, 6.31827046e-004, 2.14506243e-003,
       3.39587661e-003, 6.72625797e-003, 5.57540404e-003,
       1.35415681e-002, 2.57393010e-002, 1.16904906e-003,
       -7.23241596e-003, -7.20274402e-005, 3.75613454e-004,
       -7.11858738e-003, -3.73061490e-003, -8.02281406e-003,
       -1.54505465e-002, -1.14452979e-002, -3.27857584e-002,
       -1.23078320e-002, -9.18272417e-003, -1.12242289e-002,
       -2.60273344e-003, -5.66433941e-004, -4.27974621e-003,
       7.63656432e-003, 4.26411442e-002, -3.26611847e-003,
       1.22223821e-004, 1.21740240e-003, -5.08829812e-003,
       -1.26065798e-002, -7.64354318e-003, -1.33873271e-002,
       -1.34513453e-002, -4.93323058e-003, -3.77462953e-002,
       -2.14529634e-002, -1.74237136e-002, -1.75385736e-002,
       -7.54486211e-003, -4.25087195e-003, -9.47290100e-003,
       9.29007027e-003, 3.09897345e-002, -2.26912717e-003,
       -7.23749632e-003, -7.08428025e-003, -6.20891759e-003,
       3.17403488e-003, -2.41490838e-004, -4.40144475e-004,
       8.86126142e-003, -8.31152964e-003, 6.99891197e-003,
       -6.45114155e-003, -3.32486373e-003, 2.03698059e-003,
       5.09369606e-003, -3.54318484e-003, -5.59624191e-003,
       2.02761967e-005, -2.67508496e-002, -5.87252062e-003,
       -1.07970331e-002, -5.75283368e-004, 9.69883893e-003,
       -1.93784572e-003, 1.00859338e-002, 9.81218275e-003,
       1.70828532e-002, 7.57782906e-003, 1.25438217e-002,
       2.55595264e-003, 8.92929360e-003, 6.95879897e-003,
       1.24492729e-002, 4.84665390e-003, 2.43020547e-003,
       7.43300625e-005, -1.18386494e-002, -5.50165214e-003,
       -6.60347519e-003, 3.73333134e-003, 1.34308692e-002,
       5.00498386e-003, 3.23286210e-003, 9.91505757e-003,
       3.06980521e-003, 1.65101374e-003, 3.58658435e-004,
       1.10197591e-003, 3.34197842e-003, 1.16436156e-002,
       -1.94352446e-003, 2.59766052e-003, 1.61260273e-002,
       5.09422214e-004, 5.54145314e-003, -8.45630933e-003,
       -1.26049307e-003, -1.81486167e-003, 8.47803371e-004,
       7.73488497e-003, 5.09029115e-003, 8.32032692e-003,
       9.18381847e-004, -5.94611093e-003, -3.98984319e-003,
       8.32727179e-003, 7.84360059e-003, 1.58335268e-002,
       2.44671712e-003, 3.48419254e-003, 4.18185582e-003,
       -1.07712075e-002, -1.67242121e-002, -7.30367191e-003,
       1.11545858e-004, 7.43069267e-003, 1.36405295e-002,
       -1.66922132e-003, -2.49315007e-003, 6.72209496e-003,
       2.73861864e-004, 1.36528052e-002, -1.06765237e-002,
       -3.37702176e-003, -8.53000209e-003, -6.95926463e-003,
       -3.22445034e-004, -2.77048070e-003, -2.05925759e-003,
       -3.03004635e-003, -1.19376527e-002, -1.16740838e-002,
       -6.21002167e-003, -8.93648900e-003, -7.50727812e-003,
       5.16648311e-003, -5.51986624e-004, 1.05452084e-003,
       -9.41305328e-003, 8.12758226e-003, 2.50551244e-003,
       4.12512105e-003, -6.45220373e-003, 7.56462151e-003,
       7.07123429e-003, -8.04514057e-005, -2.22426909e-003,
       -2.56358588e-004, -2.55311048e-003, 6.82353694e-003,
       5.34312055e-003, -5.02200658e-003, 7.55939120e-003,
       5.10249846e-003, 1.82890421e-004, 2.86940322e-003,
       2.56569614e-003, -2.01977231e-003, -8.44554976e-003,
       3.26521019e-003, -6.68636931e-004, -2.46954616e-003,
       -5.97051159e-003, 1.07829180e-003, 1.10335620e-002,
       8.24335031e-003, 7.74148339e-003, -3.68723110e-003,
       3.60010797e-003, 9.21763305e-004, -5.03225392e-003,
       -3.22107505e-003, 2.91270693e-003, 6.10154762e-004,
       6.09446131e-003, 8.21270887e-003, -2.69735325e-003,
       2.55652680e-003, 9.83749051e-004, -1.87354989e-003,
       -1.71036627e-002, 4.75856801e-003, 7.35981856e-003,
       8.95798858e-003, 2.78087053e-002, 6.67046476e-003,
       8.11528321e-003, -1.25099075e-004, -1.41487122e-002,
       -1.76401101e-002, 2.88566784e-003, 3.89532465e-003,
       4.07403288e-003, 4.30088444e-003, 3.49381822e-003,
       3.14160879e-003, -1.09564944e-003, -1.42100006e-002,
       -5.59536973e-003, 2.69451784e-003, -5.92913479e-004,
       1.48280673e-002, 2.01532468e-002, 4.91993502e-003,
       6.08671410e-003, 8.07863753e-003, -4.48846724e-003,
       -2.74605658e-002, 2.48908438e-003, 8.34836811e-003,
       4.77284705e-003, 2.42003780e-002, 6.68086484e-003,
       6.91432273e-003, -1.49089645e-003, -2.46397797e-002,
       -9.39348806e-003, 6.71402225e-003, 5.13025979e-003,
       1.30732320e-002, 4.48042266e-002, 9.43944510e-003,
       -7.35569512e-004, 5.13329543e-003, -9.25063808e-003,
       -7.16960849e-003, 5.10297390e-003, 1.12762232e-003,
       9.53122787e-003, 1.42344981e-002, -3.82154365e-003,
       -2.60722591e-003, 8.09996482e-003, -1.10748690e-002,
       -6.97169499e-003, 4.54969797e-003, -6.94267655e-005,
       -8.64667259e-003, 1.05909323e-002, -1.12034502e-002,
       -3.94134643e-003, 5.69115113e-003, -1.09247733e-002,
       -6.57106098e-003, 1.08721927e-002, 9.42668039e-003,
       1.10944947e-002, 2.73374245e-002, 6.08736463e-003,
       -2.49956199e-003, 4.82190819e-003, -1.02353813e-002,
       -1.11943027e-002, 1.24489190e-002, 1.35770245e-002,
       5.80006791e-003, 1.72654837e-002, -2.69160024e-003,
       2.60780891e-003, 5.39512234e-003, -1.34344315e-002,
       1.39526662e-003, 2.46110326e-003, 1.42563091e-004,
       -1.05423881e-002, -1.61157362e-003, -4.37299069e-003,
       5.68896160e-003, 3.22964275e-003, 1.78176002e-003,
       1.38281996e-003, 2.24576006e-003, -5.40410448e-003,
       -9.12451837e-003, -9.81678534e-003, 1.79962139e-003,
       4.67364723e-003, -9.69067332e-004, 4.72056028e-003,
       2.28703511e-003, 7.61963055e-003, 8.05300102e-003,
       2.72748549e-003, 1.62597280e-002, 4.00659155e-005,
       4.83728200e-003, 9.30748228e-003, 4.37673135e-003,
       1.13802198e-002, 4.00973856e-003, -8.33806698e-004,
       -2.97984807e-003, -3.39408102e-003, 3.04895407e-003,
       7.84907211e-003, 1.35829458e-002, 1.49652259e-002,
       -2.40220106e-003, -4.00279835e-003, -4.72091697e-003,
       -2.23798025e-003, 7.50757055e-003, 6.90383185e-003,
       1.02666654e-002, 3.02051636e-003, 5.21853659e-003,
       5.58053469e-003, 2.27139855e-004, 6.55266270e-003,
       -5.17872628e-003, -1.99777819e-002, -4.53569833e-003,
       1.35700451e-002, 2.59838905e-003, 6.12302171e-003,
       1.40036298e-002, 2.68706377e-003, 3.95863224e-003,
       1.15157049e-002, 1.35918297e-002, 1.28843943e-002,
       9.60225146e-003, 5.84022608e-003, 1.36833042e-002,
       1.76571552e-002, 6.11106306e-003, 1.37555161e-002,
       1.16020078e-002, -1.89952087e-002, 4.91350656e-003,
       1.10499831e-002, 9.27168783e-003, 1.58395823e-002,
       6.15852943e-004, 1.92906256e-004, 8.82179476e-003,
       -2.84497393e-003, -1.93728041e-002, -1.33342464e-002,
       3.02555435e-003, 5.78244682e-004, 1.67462474e-003,
       2.81280791e-003, 2.99655925e-003, 1.11250393e-002,
       4.57918039e-003, 2.08630767e-002, -1.74357963e-003,
       9.07717273e-003, 1.37312640e-003, 1.77556498e-003,
       1.09918788e-002, 5.50689222e-003, 6.95128366e-003,
       -4.70647635e-003, -2.52298750e-002, -8.75000842e-004,
       7.44438404e-003, 5.03307721e-003, 7.67277135e-003,
       1.06041124e-002, 1.72571968e-002, 8.62977095e-003,
       1.59440038e-003, 8.03666562e-003, 4.76262532e-003,
       6.66125212e-003, 1.05431862e-003, 9.12489928e-003,
       1.47248822e-004, 1.69809349e-003, 2.77041714e-003,
       -4.30434477e-003, -2.26085223e-002, -2.72980724e-005,
       4.19086032e-003, 3.12672812e-003, -4.02969820e-003,
       -4.66404483e-003, 2.16548308e-003, -1.00338820e-003,
       1.39244469e-002, 1.80810764e-002, 1.36251030e-002,
       -1.97557663e-003, -3.65702523e-004, -8.63901898e-003,
       -1.19164633e-003, 8.31885729e-003, 1.87545444e-003,
       -5.77571942e-003, -1.94353666e-002, 8.64924304e-003,
       2.30912166e-003, 1.34816917e-004, 9.01549996e-004,
       -7.06567243e-003, 1.75628834e-003, -1.09163136e-003,
       1.59232765e-002, 2.40024626e-002, 2.24749297e-002,
       3.39740468e-003, -5.02649287e-004, -5.08611975e-003,
       -1.25724776e-002, -6.26850175e-003, -1.85257643e-002,
       -1.84737705e-002, -6.37647975e-003, -2.34187637e-002,
       -1.62013900e-002, -9.45529900e-003, -1.41002024e-002,
       -2.37273215e-003, -1.31923077e-003, -7.28266127e-003,
       -1.51061453e-003, 2.78435946e-002, 4.16638941e-004,
       -8.36497732e-003, -3.50611634e-003, 1.87361846e-003,
       -9.57743451e-003, -6.23434782e-003, -1.48954494e-002,
       -2.15530228e-002, 3.13214329e-003, -2.83726379e-002,
       -1.51586933e-002, -6.04377035e-003, -7.47504458e-003,
       6.03736553e-004, 6.20176725e-004, -6.31937757e-003,
       -7.17420736e-003, 2.81962082e-002, -1.74220651e-003,
       -1.27925500e-002, -7.23517546e-003, -1.13412831e-003,
       -1.30044576e-003, 7.96322897e-003, 6.77184016e-003,
       7.04840291e-003, 1.11924121e-002, 5.14530763e-003,
       -2.02298281e-003, -1.65355654e-004, 2.54838029e-003,
       8.69604480e-003, 2.03243736e-003, -5.38483204e-004,
       -8.63264606e-004, 9.98034142e-004, -1.13882998e-003,
       4.94230213e-003, 1.04810884e-002, 1.14585403e-002,
       -2.82144616e-003, -1.12798112e-002, -1.99533952e-003,
       -1.24613540e-002, -1.49259958e-002, 1.67703815e-003,
       -2.60467408e-003, 1.24153716e-003, -1.24272285e-003,
       -1.48054387e-003, -8.33829585e-003, -4.83315485e-003,
       -9.97222587e-003, -8.44333228e-003, 1.20491791e-003,
       1.60441850e-003, 1.29287643e-002, -2.02863733e-003,
       4.27388819e-003, 7.32012733e-004, -2.59470660e-003,
       -3.52900173e-003, 7.94460811e-003, -4.59238561e-003,
       1.12363100e-002, 1.57293491e-002, 1.43474629e-002,
       -4.00343398e-003, 2.90923007e-003, -3.07817711e-003,
       -9.45234112e-003, -1.15933428e-002, -1.07956128e-002,
       4.16193344e-003, 9.72892623e-003, 8.17449018e-003,
       7.62766635e-004, 4.83262027e-003, -1.94380351e-003,
       -7.38365296e-003, 1.05409278e-003, -2.77746608e-003,
       1.23712877e-002, 2.30789427e-002, 3.56718735e-003,
       2.86411261e-003, 1.35418251e-002, 2.09960388e-003,
       -1.19262841e-002, -1.70233808e-002, -1.01749934e-002,
       2.20450871e-002, 2.73748338e-002, 1.80442480e-003,
       1.06186303e-003, 5.59342140e-003, 2.14634929e-003,
       -3.64111946e-003, -7.34048290e-003, -4.11965884e-003,
       4.09520045e-003, 1.21340191e-003, 4.59698029e-003,
       8.69035907e-003, 7.85353221e-003, 7.69786350e-003,
       1.24065327e-002, -4.81751235e-003, 4.88241576e-003,
       7.33414106e-003, -2.32713210e-004, 7.07277609e-003,
       9.06009227e-003, 1.75246913e-002, 6.05827384e-003,
       -6.19165413e-003, -1.77462976e-002, -1.12213390e-002,
       1.29359663e-002, 1.80870183e-002, 2.12392979e-003,
       1.82193536e-002, 2.21387912e-002, 1.00402627e-002,
       -1.51977909e-003, -1.42203718e-002, -7.31115788e-003,
       8.25481024e-003, 4.36317222e-003, 1.02594076e-002,
       -1.89191371e-003, 4.12367657e-003, 3.15658678e-003,
       3.50069487e-003, 9.36976448e-003, 3.44047346e-003,
       5.30842226e-003, -3.81098688e-003, -2.43116124e-003,
       -1.53824976e-002, 4.13971301e-003, 3.94729013e-003,
       1.34641177e-003, 2.35137418e-002, 2.36184825e-003,
       6.60096062e-003, -1.06804655e-003, -1.44458851e-002,
       9.33566131e-003, 9.73263755e-003, 3.54190217e-003,
       -7.58731458e-003, -8.30934290e-003, -6.81568496e-003,
       9.39476676e-003, -2.97904713e-004, 4.12268890e-003,
       2.33203406e-003, -6.02124957e-003, -4.25048359e-003,
       -4.68405103e-003, 1.62165537e-002, -8.17366410e-003,
       6.28918363e-003, 2.48282496e-003, 1.40549836e-003,
       -2.45662779e-002, -6.91414520e-004, 4.27181460e-003,
       2.95738271e-003, 2.55805608e-002, 6.78289123e-003,
       5.13431802e-003, 4.13172180e-003, -2.48448532e-002,
       -1.39583703e-002, 4.35946230e-003, 6.73153484e-003,
       3.60241486e-003, 4.59751599e-002, 4.65259096e-003,
       2.90994672e-003, 1.01070451e-002, -1.67132933e-002,
       -1.78387798e-002, -7.10951118e-003, -3.65915080e-003,
       -8.06222612e-004, 2.02495661e-002, -3.14515689e-003,
       2.17930204e-003, 1.56112458e-003, -2.21908372e-002,
       -2.12251656e-002, 5.82494168e-003, 1.09827565e-002,
       3.22885765e-003, 3.37698534e-002, 1.02332747e-003,
       1.09646264e-002, 1.06786871e-002, -2.25823149e-002,
       -9.16233845e-003, 1.07662743e-002, 1.05135934e-002,
       3.57247656e-003, 2.63428241e-002, -1.31549558e-003,
       1.88263925e-003, 8.12137313e-003, -9.75690223e-003,
       -4.59000655e-003, 1.39572015e-002, 1.50553277e-002,
       7.30251474e-003, 2.57510953e-002, 1.87750685e-003,
       3.19612795e-003, 1.07324077e-002, -6.77838316e-003,
       -7.47123361e-003, 6.26746519e-003, 6.86070370e-003,
       -4.72319359e-003, 1.80483516e-002, -3.24735325e-003,
       9.50397365e-003, 1.48187401e-002, -9.92596895e-003,
       4.60755313e-003, 2.77236034e-003, -6.46632689e-004,
       -1.19163161e-002, 7.92024285e-003, 9.28009395e-005,
       4.97797271e-003, 1.59053989e-002, 4.77094174e-004,
       2.38402141e-003, 8.70934594e-003, 2.30481336e-003,
       3.89515684e-004, 2.40653194e-002, 1.80220534e-003,
       1.62287452e-003, 1.06532499e-002, 2.49732868e-003,
       9.14537068e-003, 3.28748766e-003, -1.46599219e-003,
       1.29790406e-003, -9.50302370e-003, -3.49457585e-003,
       3.08590732e-003, 1.32208364e-002, 1.20474305e-002,
       9.43993498e-003, 8.39834753e-003, 2.19166884e-003,
       -1.17047476e-002, 9.71714151e-004, -2.85385852e-003,
       -8.97592166e-004, 1.16889393e-002, 1.02292039e-002,
       1.55898212e-002, 1.35834515e-002, 1.49274641e-003,
       -6.01416826e-003, -2.50917003e-002, -1.25784865e-002,
       -6.51725521e-003, 7.86364917e-003, 1.76670924e-002,
       2.14182725e-003, 2.97512561e-005, -1.19490433e-003,
       6.17799442e-003, 1.42469723e-002, 4.44933400e-003,
       9.43985023e-003, 1.03596039e-002, 2.85288040e-003,
       7.94711756e-004, 3.87777830e-003, 4.31261258e-003,
       -2.33458355e-003, -6.31892402e-003, 2.35548848e-003,
       8.20542965e-003, 8.73391423e-003, 5.09803975e-003,
       4.63124085e-003, 7.00810552e-003, -4.36872384e-003,
       -5.28320717e-003, 8.65741167e-003, -6.24673814e-003,
       4.02905187e-003, 1.19165163e-002, 9.91804898e-003,
       1.28183642e-003, -1.66461302e-003, -1.28522916e-002,
       -1.52949607e-002, 1.35678216e-004, -1.07900351e-002,
       8.04577209e-003, 1.53504563e-002, 1.07327607e-002,
       3.78893432e-003, 8.28732736e-003, 4.01587831e-003,
       -7.72843976e-003, -1.08957198e-002, 4.81431838e-003,
       7.78803183e-003, 5.50756091e-003, 7.39525538e-003,
       9.18210018e-003, 1.69548914e-002, 4.96355118e-003,
       4.08846792e-003, 1.69210583e-002, -1.27027859e-004,
       1.99100072e-003, 6.73553499e-004, 5.57934772e-003,
       -5.06738480e-003, 6.53406279e-003, -4.25514812e-003,
       -9.10599716e-003, -1.57712493e-004, -1.23780770e-002,
       7.76735088e-003, 5.29179024e-003, 4.92874021e-003,
       -4.86350199e-003, 1.84363052e-002, 8.01306311e-003,
       4.36096266e-003, 1.07588135e-002, -9.22210608e-003,
       6.55620685e-003, 9.40240268e-003, -9.44690721e-004,
       2.92178104e-003, 1.18718976e-002, 3.39832366e-003,
       -3.25132790e-003, -1.87848285e-002, -3.27199697e-004,
       -3.29982303e-003, 4.28245077e-003, 6.18771091e-003,
       -4.23863903e-003, 2.47948966e-003, 3.70667293e-003,
       2.17308737e-002, 4.47985455e-002, 1.38076078e-002,
       3.32186604e-003, 6.36139745e-003, 3.45662422e-003,
       -8.45337845e-003, 8.75414163e-003, 6.53239992e-003,
       -6.64933631e-003, -3.18789817e-002, -1.19574405e-002,
       -1.19581142e-004, 6.81177201e-003, -1.10281836e-002,
       -1.31858671e-002, -2.55096184e-005, 8.66799150e-003,
       2.92872991e-002, 2.60618664e-002, -4.66067763e-003,
       2.95947335e-004, 3.58257536e-003, -9.20329522e-003,
       -9.17355996e-003, -1.65473425e-003, -8.13171174e-003,
       -1.12214303e-002, 1.10950100e-003, -2.95348931e-002,
       -8.76924675e-003, 2.73079466e-004, 1.30654057e-003,
       -5.08000748e-003, 6.97217882e-004, -4.76359826e-004,
       -3.28507298e-003, 2.87934877e-002, -3.50510841e-003,
       -8.40646215e-003, -1.81144651e-003, 5.70320990e-005,
       -9.63137578e-003, -3.47596826e-003, -6.68843091e-003,
       -8.27953964e-003, -9.07357689e-003, -4.05740477e-002,
       -1.25745079e-002, -3.25240125e-003, -4.66336589e-003,
       -7.73905125e-003, -3.05073289e-003, -3.21139814e-003,
       -3.05035501e-003, 1.78333651e-002, -1.12051507e-002,
       -9.39294975e-003, -5.50826825e-003, -1.17005510e-002,
       -1.85086217e-003, -5.67671843e-003, -4.99921851e-003,
       -6.94860891e-003, -6.42728666e-003, 5.52126486e-003,
       -2.81746639e-003, 3.45474179e-003, -3.62449582e-003,
       -6.52298285e-003, -2.44485494e-003, 2.37805559e-003,
       -1.68135943e-004, 8.14278424e-003, -1.83587533e-003,
       3.98735399e-004, 1.46733150e-002, -8.30921903e-003,
       -8.25731317e-004, 6.21689484e-004, -3.74336611e-003,
       4.10781801e-003, -4.72820038e-003, 3.23063578e-003,
       2.55540805e-003, -5.37107792e-003, -8.89409706e-003,
       -1.49897803e-002, 5.53866057e-003, 6.69846730e-003,
       1.32782450e-002, -6.95024524e-003, 2.75424944e-004,
       4.22930811e-003, 2.11336534e-003, -1.68849453e-002,
       -5.13133639e-003, 2.27991492e-003, 1.68839365e-003,
       -4.92289290e-003, 4.54116333e-003, -9.99801699e-003,
       6.73224824e-003, 1.73126627e-002, -2.70265108e-003,
       1.37279416e-003, 1.18724434e-002, 4.70937649e-003,
       -1.61252599e-002, -2.11350545e-002, -7.11953733e-003,
       1.10794306e-002, 2.31733527e-002, 1.84241601e-003,
       -3.87876225e-003, 6.92776451e-003, 1.09193763e-002,
       9.51334555e-003, 1.38877798e-002, -5.75107289e-003,
       4.37589595e-003, 3.44408629e-003, -7.47245969e-003,
       4.35782224e-003, 1.29349837e-002, 1.19204912e-002,
       -1.04134213e-002, -1.12182992e-002, -2.08547595e-003,
       1.15397591e-002, 1.28031671e-002, 1.87260448e-003,
       -4.48509492e-003, 1.16741387e-002, 5.70817059e-003,
       -9.49431863e-003, -2.09369957e-002, -1.24603175e-002,
       1.63464136e-002, 2.41732597e-002, -3.91776022e-003,
       -1.41101796e-003, 9.89468955e-003, 8.59116670e-003,
       -6.85140444e-003, -1.67261437e-002, -1.58958379e-002,
       1.38913868e-002, 1.51423132e-002, -9.94302332e-004,
       -2.56283279e-003, 1.26784341e-002, 4.25095856e-003,
       -3.83068994e-003, -1.23249395e-002, -6.99253334e-003,
       1.76278427e-002, 1.77323427e-002, 7.05758110e-004,
       -3.10188363e-004, 1.60397068e-002, 4.88950545e-003,
       9.58188716e-003, -9.89186950e-003, -1.52262989e-002,
       1.80014856e-002, 2.16826294e-002, 5.36985369e-003,
       1.21109711e-003, 6.88693533e-003, -1.96932830e-004,
       -1.26525583e-002, -1.73791628e-002, -1.61957052e-002,
       5.81054250e-003, 1.00687351e-002, -7.62901269e-004,
       -1.42123876e-003, -2.41056271e-003, -8.25765170e-003,
       -3.77231510e-003, 1.14228679e-002, -1.85175240e-002,
       -7.91643924e-006, 2.57984432e-003, -5.60753793e-003,
       -7.40373600e-003, 1.13083003e-002, 2.64420104e-003,
       -1.05416472e-003, -1.01828305e-002, -6.36329642e-003,
       1.72903407e-002, 1.95940118e-002, -3.33699374e-003,
       -8.15328676e-003, 4.74492041e-003, -3.35501204e-003,
       1.10818795e-003, 1.53822983e-002, 1.76162878e-003,
       1.08418912e-002, 1.44175859e-002, -9.46911424e-003,
       -6.10146206e-003, -7.88043137e-004, -7.89030641e-003,
       2.59173033e-003, 1.90903470e-002, -9.04719345e-003,
       8.25451396e-004, -9.34207521e-004, -1.20729394e-002,
       -8.57087132e-003, 5.69609227e-003, 3.41940857e-003,
       3.32313735e-004, 1.59206260e-002, -4.73885518e-003,
       4.70254337e-003, 6.92965789e-003, -1.27333663e-002,
       -1.23118488e-002, 1.77107658e-003, -7.10493838e-003,
       5.33575192e-003, 2.39707641e-002, 2.73372582e-003,
       2.76819733e-003, 1.32836911e-004, -1.64161175e-002,
       -1.32736387e-002, -3.71046970e-003, -7.24569522e-003,
       3.58263729e-004, 3.27402167e-002, 5.48727810e-003,
       4.03957814e-003, 1.11948815e-003, -1.53294271e-002,
       -2.78335414e-003, 3.84827307e-003, 9.14964476e-004,
       -1.22126462e-002, -3.20623000e-003, -2.42782594e-003,
       6.70835096e-003, 9.22958739e-003, -3.42653366e-003,
       1.28302975e-002, 6.00721873e-003, -4.84963879e-003,
       -2.11471580e-002, -7.71134021e-003, -3.81189701e-003,
       6.57792483e-003, 1.33044375e-002, 1.21848406e-002,
       -1.34562040e-002, -1.00092904e-003, -2.75533833e-003,
       -2.83584138e-003, 1.24997599e-002, 5.35588246e-003,
       9.39698052e-003, 6.13354007e-003, -1.41863013e-002,
       1.17188580e-002, 1.26983132e-002, 1.52054452e-003,
       -5.15302457e-003, 1.10476855e-002, 5.22805937e-003,
       6.19528303e-003, 1.30000962e-002, 8.36158823e-003,
       1.50566483e-002, 1.15391156e-002, -1.35634583e-003,
       -2.13917233e-002, -2.02876353e-003, -4.54952288e-003,
       1.48465170e-003, 1.17173837e-002, 1.30787147e-002,
       1.57496501e-002, 1.15126884e-002, -1.08797557e-003,
       -1.19966883e-002, -1.52805056e-002, -1.43306796e-002,
       -6.80576684e-003, 2.72325659e-003, 1.31242154e-002,
       1.41726490e-002, 1.86405238e-002, 6.96465746e-003,
       -1.04739377e-002, 5.36796544e-003, 1.55118981e-003,
       -3.89876985e-003, 7.13667599e-004, 9.99186467e-003,
       2.47997395e-003, 7.25805573e-003, 3.77912447e-003,
       -1.00775501e-002, -4.52187937e-003, -7.59916892e-003,
       -9.69842728e-003, -7.29268137e-003, 3.63252871e-003,
       1.11196877e-003, 9.49018076e-003, -2.30596564e-003,
       6.64260180e-004, 6.33941405e-003, -7.54591357e-003,
       -5.56550047e-004, 5.30826102e-004, -6.19548198e-004,
       -2.70456495e-003, 3.07341525e-003, -7.77619705e-003,
       -1.01555772e-002, -9.25213471e-003, -7.75767956e-003,
       8.92661326e-003, 1.18055632e-002, -3.52246134e-005,
       -6.17803191e-004, 3.46386037e-003, 5.80908312e-003,
       1.08347097e-002, 1.63188651e-002, 3.28534923e-004,
       2.21894681e-003, -4.95836372e-003, 3.45303398e-003,
       5.67482179e-003, 1.32300062e-002, 1.01193404e-002,
       8.31283070e-003, 1.42834755e-003, 2.63284473e-003,
       4.12711874e-003, 7.52607919e-003, 3.81554058e-003,
       -8.65586754e-003, 8.16304237e-003, 3.20025953e-004,
       -7.39391521e-003, -7.71400100e-003, -8.68895929e-003,
       9.49485786e-003, 7.78640155e-003, -1.66682259e-003,
       -8.00180715e-003, 1.59503706e-002, 1.36464313e-002,
       6.68374216e-003, 8.20537750e-003, -7.96843495e-004,
       1.42492596e-002, 1.14353457e-002, -3.46268923e-003,
       3.35467001e-003, 1.45729780e-002, 1.59578025e-002,
       3.96388024e-003, -3.48747079e-003, -1.90710148e-003,
       1.58930337e-003, 9.38038342e-003, 4.61589312e-003,
       -4.11596475e-003, 9.87529755e-003, 2.04482749e-002,
       1.75106879e-002, 2.71777213e-002, 4.56772774e-004,
       1.43187819e-002, 6.18214067e-003, 2.25669937e-003,
       -1.32474555e-002, 3.95383965e-003, 2.35106476e-004,
       -6.93200575e-003, -3.23718823e-002, -9.21071041e-003,
       3.34222452e-003, 6.23074034e-003, -9.34885535e-003,
       -3.07599921e-003, -1.81276977e-004, -1.53428307e-004,
       1.53047647e-002, 1.07656131e-002, -2.84449197e-004,
       3.10998969e-003, 9.79613833e-005, -6.06847554e-003,
       -1.55267054e-002, -5.43899892e-004, 5.37597295e-003,
       1.09709213e-002, -1.49735098e-003, -7.84115773e-003,
       3.19796789e-004, -7.47036538e-004, -1.30491285e-002,
       -7.86326360e-003, -1.53356348e-003, 3.04882065e-003,
       3.62795219e-002, 3.00293844e-002, 2.40803007e-002,
       4.49551782e-003, 4.27431427e-003, -4.84109065e-003,
       -1.24234438e-003, -7.43762543e-003, -1.13631319e-002,
       -6.52253861e-003, -2.10211519e-002, -2.73432676e-002,
       -1.22487573e-002, -5.72375767e-003, -6.75482769e-003,
       -7.99013593e-004, -3.95955425e-003, -1.13745015e-002,
       -2.68074870e-003, 1.72738489e-002, -1.32107139e-002,
       -9.24551766e-003, -5.16030891e-003, -8.35606363e-003,
       -4.39120829e-003, -1.03696808e-002, -1.77663770e-002,
       -5.25512593e-003, 2.74318678e-004, -1.42443981e-002,
       -9.23884287e-003, -9.46760993e-004, 1.44417689e-003,
       -3.46742151e-003, -1.20028099e-002, -1.39322942e-002,
       7.06034666e-003, 2.54262071e-002, -3.97770898e-003,
       -5.82362339e-003, 6.27345464e-004, -1.05591270e-003,
       -6.63234573e-003, -3.66463792e-003, -1.52049106e-004,
       4.79713036e-003, -9.96924844e-003, -1.81767705e-003,
       8.20212415e-004, -2.98467977e-003, -1.10975308e-002,
       -4.38898150e-003, -3.32975869e-005, 1.38733257e-003,
       1.01681836e-002, -1.36557240e-002, 5.47378603e-003,
       3.39818792e-003, 3.87362833e-003, -2.96151009e-003,
       -1.37399286e-002, -3.16103268e-003, -1.44633208e-003,
       3.72025330e-004, 4.23860783e-003, -1.97392097e-003,
       2.60833837e-003, 8.75355583e-003, -1.07769389e-002,
       -6.72981981e-003, -3.82344448e-003, -3.98556283e-003,
       4.51617688e-003, 8.90494965e-004, 3.05567868e-003,
       1.67707130e-002, 1.78877469e-002, -4.25986917e-004,
       -1.54982368e-003, 1.62004505e-003, 2.94550275e-003,
       -1.01186836e-003, 1.13150068e-002, 6.50419667e-003,
       5.94212022e-003, 3.76950158e-003, -1.66804343e-003,
       3.11558740e-003, 1.11539690e-002, 5.86356362e-003,
       -1.23280501e-002, -2.31207069e-002, -5.15058823e-003,
       8.28662235e-003, 1.26497559e-002, 9.01332765e-004,
       -3.13330209e-003, -2.02257442e-003, -1.15906572e-004,
       -1.14046028e-002, 1.46256527e-002, 2.60624127e-003,
       9.66679491e-003, 1.18614417e-002, 2.65345420e-003,
       5.64975943e-003, 6.76806271e-003, -1.16795173e-003,
       -1.32362870e-002, -1.36869680e-002, -1.03738951e-002,
       7.93690514e-003, 9.42531880e-003, 6.73893141e-003,
       -3.01546301e-003, 8.14768020e-003, 3.20407620e-004,
       -2.83271237e-003, -6.66186120e-003, -8.01227801e-003,
       1.03000654e-002, 1.19439485e-002, -7.55101908e-003,
       -2.67329538e-004, 7.76796183e-003, -3.36846383e-003,
       3.93132772e-003, -3.24443821e-003, -8.47024471e-003,
       1.15822563e-002, 1.73507072e-002, -6.65894244e-003,
       4.13960137e-004, 6.95186760e-003, 1.01126777e-003,
       2.18345504e-003, 4.63984348e-003, -9.40426998e-003,
       6.64368225e-003, 9.30328795e-004, -1.03124045e-002,
       -1.91490981e-003, 7.44471373e-003, -3.33149910e-005,
       7.61924125e-003, 1.96609506e-003, 8.27676151e-003,
       1.58465002e-002, 1.10015646e-002, -1.26423342e-002,
       -1.64277898e-003, 6.47992548e-003, -1.86714286e-003,
       -4.54290351e-003, -2.27146670e-002, -2.92058964e-003,
       9.22231562e-003, 1.53723573e-002, -4.32840688e-003,
       -1.11198975e-002, 2.07993871e-004, -4.56711929e-003,
       6.88969577e-003, 2.14509037e-003, 9.11852531e-003,
       1.69117134e-002, 1.71902087e-002, -1.32787600e-002,
       -4.18853061e-003, 7.71199772e-003, -5.59898186e-003,
       -2.04004953e-003, -1.52614163e-002, -2.77023530e-003,
       1.13656400e-002, 1.62545796e-002, -5.46436291e-003,
       -5.28865401e-003, 2.85617402e-003, 2.09779455e-003,
       1.99708901e-002, 2.65687588e-003, 4.31364402e-003,
       2.00425815e-002, 1.89129282e-002, 2.07533478e-003,
       -2.74294000e-002, -6.58549182e-003, -1.30396802e-002,
       6.10867934e-003, -7.63825723e-004, 6.42650807e-003,
       7.14714499e-003, 2.67681037e-003, -2.97498424e-002,
       -2.26246510e-002, -9.64430440e-003, -1.17776720e-002,
       -2.63707968e-003, 1.68690290e-002, -4.73802676e-003,
       -1.91615440e-003, -9.37531330e-003, -3.22633535e-002,
       -4.41922201e-003, -1.29763607e-003, 3.45244684e-004,
       1.62902307e-002, 1.45294964e-002, 1.18551068e-002,
       1.64533872e-002, 9.03382432e-003, -3.92940128e-003,
       5.55790961e-003, 1.04100187e-003, 3.68519546e-003,
       4.17303527e-003, 1.47759663e-002, -1.12597353e-003,
       6.31497824e-004, 4.34592337e-004, -2.85107130e-003,
       -1.25342095e-002, -1.53663990e-004, -4.66093142e-003,
       1.27003470e-003, 1.52689228e-002, 3.01103666e-003,
       3.01913708e-003, 2.61198403e-003, -2.47751456e-002,
       -5.58384648e-003, 1.25520397e-002, 5.26340678e-003,
       -1.93480996e-003, 7.27115478e-003, -1.21124578e-003,
       -7.61829608e-004, 6.24199118e-003, -1.07632820e-002,
       1.06241908e-002, 7.66302971e-003, 9.17577371e-003,
       6.18781988e-003, 2.36207340e-002, 3.99220362e-003,
       1.44700776e-003, 2.20528548e-003, -1.37824949e-003,
       1.50369424e-002, 1.24522373e-002, 5.45624457e-003,
       -6.61535072e-004, 1.36674233e-002, -9.25789215e-003,
       -4.87998873e-003, 4.26729530e-004, 7.22281821e-003,
       9.51254740e-004, 1.52623858e-002, 1.02741281e-002,
       2.39698892e-003, 3.59047204e-003, 4.00553574e-004,
       -4.36350610e-003, -7.88026780e-004, -3.25734681e-003,
       5.02291648e-003, 2.81998282e-003, 2.55776598e-004,
       -5.83127560e-003, -1.15316203e-002, 3.05331568e-003,
       -5.15245134e-003, -2.30185688e-003, 5.27126342e-003,
       1.58894379e-002, 1.30834691e-002, 3.69338109e-003,
       4.00644727e-003, 1.11959828e-002, -3.66140343e-003,
       -1.14882248e-003, 5.42524969e-003, 9.36187711e-003,
       1.31024560e-002, 2.95529934e-003, -2.84952810e-003,
       -3.58540821e-003, 1.14441300e-002, 7.74097536e-003,
       7.72143621e-003, 1.38569344e-002, 1.45782465e-002,
       -4.89711005e-004, 3.22765438e-003, 4.93981829e-003,
       3.43960198e-003, -3.61506070e-004, 1.70365442e-003,
       -1.09032495e-004, -1.48925406e-003, 9.30309237e-004,
       2.00991100e-003, 1.12015549e-002, 1.20110204e-002,
       1.03458855e-002, -1.59083512e-002, -5.23911882e-003,
       2.26639168e-004, 4.62694978e-003, 3.21740564e-003,
       1.19011272e-002, 9.17128194e-003, 8.15501995e-003,
       3.21214600e-003, 8.76597408e-003, 6.32588798e-003,
       2.32134946e-003, 5.19455876e-003, 1.21229785e-002,
       1.88128352e-002, 1.77953783e-002, 1.46031566e-002,
       1.10949092e-002, -9.42388782e-004, -3.70396185e-003,
       2.06667301e-003, 4.66269581e-003, 1.44204581e-002,
       -1.95138901e-003, 5.51225711e-003, 8.64794850e-003,
       8.89885426e-003, -1.25875482e-002, -2.77056103e-003,
       3.86039697e-004, 1.95308472e-003, -3.51396296e-003,
       -1.07004577e-002, -3.20048584e-003, 1.00737074e-002,
       1.96859557e-002, 1.36203403e-002, 1.03392836e-003,
       7.99720921e-003, 1.20437157e-003, -1.09455166e-002,
       5.61874779e-003, 7.30724027e-003, 7.03921169e-003,
       8.51043407e-003, -4.31241794e-003, 4.68539819e-003,
       6.95378846e-003, 2.26495508e-003, -4.42171469e-003,
       -9.76192416e-004, 2.62508867e-003, 6.66626496e-003,
       1.97441503e-002, 2.10111141e-002, 2.31875014e-002,
       1.30141489e-002, 5.66788623e-003, -6.37871539e-003,
       -1.47121251e-002, -4.91318572e-003, 1.74074539e-003,
       9.25531797e-003, -1.56983398e-002, -9.51593462e-003,
       -9.67461034e-004, -4.87861084e-003, -1.44294361e-002,
       -1.18016498e-002, -4.25592670e-003, 4.47631930e-004,
       3.38412337e-002, 2.10178476e-002, 1.01552159e-002,
       5.62303059e-004, 1.82683847e-003, -4.29918896e-003,
       -3.08617880e-003, -2.19406444e-003, 2.91241508e-004,
       5.55421645e-003, -9.63314250e-003, -2.79032422e-004,
       -4.26627276e-003, -5.41042397e-003, -6.69316296e-003,
       3.30816023e-003, -2.80544907e-003, 7.22867809e-003,
       3.57203893e-002, 1.60206985e-002, 8.58664140e-003,
       2.16789264e-003, 4.79005859e-004, 5.26680239e-003,
       -6.45132409e-003, -1.51236001e-002, -1.80303100e-002,
       -8.08491465e-003, -8.70805886e-003, -1.24199111e-002,
       -9.09556448e-003, -1.57064665e-003, -2.08831835e-003,
       -5.46495197e-003, -1.42405247e-002, -1.06980260e-002,
       7.53234187e-003, 8.02246667e-003, -1.64978940e-003,
       -7.19851721e-003, -2.75887013e-003, -1.39082229e-004,
       5.94930351e-003, -1.89567618e-002, -1.11792497e-002,
       -4.58763726e-003, -1.05308443e-002, -2.38945186e-002,
       -1.04824733e-002, -6.69066608e-003, 8.61582253e-003,
       8.85379873e-003, -8.63391999e-003, -5.52003551e-003,
       1.13450363e-002, 1.06068291e-002, -5.39009273e-003,
       -4.30571800e-003, -3.47533985e-003, 1.23219863e-002,
       -1.42488135e-002, -4.00929106e-003, -8.80025700e-003,
       -3.30897607e-003, 1.71184577e-002, -6.89238356e-003,
       1.50359934e-003, 6.01855107e-004, -1.78313386e-002,
       -1.16292508e-002, -7.56697450e-003, -8.92401300e-003,
       1.34816021e-003, -6.70749578e-004, -8.11076909e-003,
       1.42845642e-002, 9.97528899e-003, -1.43639464e-002,
       3.96557292e-003, -5.63570438e-003, -1.37557294e-002,
       -5.14447747e-004, 2.08724160e-002, 2.98837607e-004,
       -3.38514475e-003, 1.65689469e-003, 4.26352443e-003,
       -2.93130311e-003, -1.98036036e-003, -5.96353691e-003,
       3.77891376e-003, 1.18531650e-002, -3.98015184e-003,
       9.10484232e-003, 7.80745363e-003, 8.98229890e-004,
       -4.52654483e-003, 1.06137455e-003, 5.00219874e-004,
       -6.89043617e-003, 1.56973414e-002, -2.04712269e-003,
       8.39585904e-003, 6.47697179e-003, -8.35294276e-003,
       7.22903199e-003, 6.58387365e-003, 6.94360491e-003,
       -4.18429635e-003, -4.60587116e-003, -1.45370150e-002,
       2.69882934e-004, 2.86081922e-004, -6.15720069e-007,
       -5.53570269e-003, -2.42176204e-004, 3.46517516e-003,
       4.38931631e-003, 2.96376441e-002, -3.54158413e-003,
       4.83778352e-003, 6.68030349e-004, -1.26025705e-002,
       2.72499677e-003, -1.02624332e-003, 7.14663556e-003,
       5.47389686e-003, -1.28147227e-003, -1.66033339e-002,
       -6.30035438e-003, 2.25101621e-003, -3.07800155e-003,
       -2.09852308e-003, 2.64051394e-003, 1.47791032e-003,
       -6.47214474e-003, -5.24377218e-003, -8.92932806e-003,
       2.96279090e-003, -3.58120888e-003, -8.07069987e-003,
       -2.91568547e-004, 8.47466849e-003, 2.18873750e-003,
       3.86210042e-003, -2.12195376e-003, 1.03108454e-002,
       1.35868639e-002, 4.55382559e-003, -7.74194440e-003,
       4.68376419e-003, 3.05741996e-004, 3.61511554e-003,
       -2.89366464e-003, -7.78202061e-003, -1.42695354e-002,
       1.14734314e-004, -4.24975093e-004, -6.73761067e-004,
       9.56208725e-003, 2.80051003e-003, -3.45711689e-003,
       -4.57083480e-003, -1.43853118e-004, 8.87453277e-003,
       1.16637293e-002, 5.15975431e-003, 5.57989487e-003,
       1.52341824e-003, 4.07539867e-003, -3.29888775e-003,
       -5.72356023e-003, -1.59667134e-002, -5.14764246e-003,
       5.46862883e-003, 2.45613605e-003, -9.29331686e-003,
       -3.41760693e-003, -5.40125184e-003, 4.42905631e-003,
       1.46097904e-002, -1.42270525e-003, 2.72259815e-003,
       1.46498689e-002, 1.14775756e-002, -3.90331121e-003,
       1.07080126e-002, 4.96444060e-003, -2.97998753e-003,
       -1.09823542e-002, -1.68938283e-002, -5.41593460e-003,
       1.44525268e-003, 4.14153840e-003, -1.59727666e-003,
       7.09024305e-003, 7.64722284e-003, 8.99070781e-003,
       1.98915228e-002, 9.38174687e-003, 1.36358924e-002,
       8.94565973e-003, 1.26302158e-002, -2.72512855e-003,
       -1.24095622e-002, -3.64019978e-003, 2.18976848e-003,
       5.71902050e-003, 3.36894853e-004, 1.05935484e-002,
       1.25823012e-002, 1.87059469e-003, -1.76478010e-002,
       -9.03947745e-003, 2.06272141e-003, 2.39391765e-003,
       -3.49005847e-003, 1.78207236e-003, 8.24431516e-003,
       4.90364479e-003, -2.31873617e-003, -1.51169496e-002,
       -1.13182319e-002, 1.08457438e-003, 9.48692206e-004,
       1.09137949e-002, 8.20345711e-003, 9.19107720e-003,
       3.95929394e-003, 1.97545183e-003, -1.90635640e-002,
       -1.14931157e-002, 8.79603159e-003, 1.75004662e-003,
       2.84176762e-003, -2.55989115e-004, 1.16417687e-002,
       8.07671901e-003, 6.79494720e-003, -1.14679597e-002,
       -6.30261051e-003, 3.58674850e-004, 6.67150877e-003,
       4.16270783e-003, 4.96294163e-003, 5.41945035e-003,
       3.62735637e-003, 5.01801027e-003, -1.52514549e-002,
       -1.18156672e-002, -1.54721958e-003, -9.67380765e-004,
       -2.98711075e-003, 9.69910342e-003, -6.08645240e-003,
       -5.28415153e-003, -3.11414548e-003, -1.06560523e-002,
       5.27572352e-003, 4.84960200e-003, 6.08150382e-003,
       7.24787731e-003, 4.43030940e-003, 2.28044987e-002,
       1.48489373e-002, 1.59196183e-002, 3.40871210e-003,
       7.92343542e-003, 3.33629618e-003, -4.33878182e-003,
       -4.74054599e-004, -1.17756543e-003, 7.64899515e-003,
       3.93905444e-003, 1.36160906e-002, 7.51858717e-003,
       -4.65966295e-003, 4.27413126e-003, -2.80264067e-003,
       5.30670071e-003, 7.24187912e-003, 2.40274658e-003,
       3.01143504e-003, 4.95830458e-003, 4.49266488e-004,
       -7.75001384e-003, -2.00349861e-003, -5.21361921e-003,
       -3.99276195e-003, 9.18623246e-003, 2.98333913e-003,
       1.41222151e-002, 1.33744953e-002, -1.25413574e-003,
       2.09272578e-002, 4.69631795e-003, -1.63366401e-003,
       1.65596195e-002, 3.51496367e-003, 1.08546279e-002,
       1.14435880e-002, 1.83235575e-002, 1.87882371e-002,
       2.81083528e-002, 1.03245704e-002, 2.01045210e-003,
       2.75753438e-003, -5.65722538e-003, 1.54264586e-003,
       5.63396327e-003, 1.95475016e-002, 2.53603272e-002,
       -7.88489915e-003, 1.43619732e-003, 6.08815812e-003,
       4.31030989e-003, 1.53190475e-002, 5.83264744e-003,
       7.00243283e-003, 7.02446932e-003, -1.66760047e-003,
       2.16625468e-003, 1.02499425e-002, 8.51379149e-003,
       -1.54803987e-004, 4.69640689e-003, 2.90237996e-003,
       1.39259524e-003, 5.79540944e-003, 3.12208966e-003,
       2.02240739e-002, 1.28819719e-002, 1.42153902e-002,
       1.17909804e-003, -3.65212164e-003, 5.37119992e-003,
       3.31597589e-003, 1.47737544e-002, 1.83051955e-002,
       1.86220761e-002, 1.40735172e-002, 1.27567369e-002,
       -4.82131355e-003, -1.73517037e-002, 4.13402170e-003,
       4.37158393e-003, 1.51584279e-002, 1.32917613e-002,
       9.85512161e-004, 6.61056349e-003, 2.99621047e-003,
       2.64593982e-003, -1.49136167e-002, 5.62121905e-003,
       9.91383474e-003, 2.56341114e-003, -5.51216677e-003,
       -1.78288901e-003, 4.70789568e-003, 7.10452208e-003,
       1.52250705e-002, 1.26030343e-002, 2.52956487e-002,
       1.05614159e-002, 5.39647695e-003, -1.29378326e-002,
       4.79808822e-003, 6.74944557e-003, 5.29920170e-003,
       2.16318644e-003, -1.67375505e-002, 5.15918247e-003,
       1.38358548e-002, 1.01411929e-002, -2.38061557e-003,
       1.32415455e-003, 2.86663906e-003, 1.14149069e-002,
       3.50805409e-002, 2.31464859e-002, 2.06416156e-002,
       1.41745759e-002, 9.78427101e-003, -2.60981615e-003,
       -5.02982689e-003, -2.32974126e-004, 8.24543647e-004,
       -2.97762733e-003, -1.92116890e-002, -1.45349780e-003,
       -5.87044610e-003, -2.48001656e-003, -1.42675890e-002,
       1.72637554e-003, -4.98068007e-003, 4.61569615e-003,
       2.63953619e-002, 2.11412609e-002, 5.42894378e-003,
       3.08660697e-003, 1.23958592e-003, -7.39289739e-004,
       -1.36059541e-002, -4.53678519e-003, 1.42728910e-003,
       1.57273952e-002, -9.02957562e-003, -2.61694705e-003,
       -4.03665518e-003, -4.94102109e-003, -1.91830955e-002,
       -7.64538010e-004, -1.72398810e-003, 5.11791836e-003,
       4.12677154e-002, 2.09588539e-002, 1.64612420e-002,
       4.82571399e-004, -3.69989168e-004, -1.00569539e-002,
       2.46879249e-003, -1.52799254e-002, -8.22113641e-003,
       -6.51684171e-003, -1.04886033e-002, -1.71923991e-002,
       -8.25488754e-003, -3.61371390e-003, 2.55510211e-004,
       1.23241004e-002, -4.37092874e-003, -6.95367018e-003,
       1.91713567e-003, 8.84736516e-003, -1.12540729e-003,
       -1.25050254e-003, 1.02227135e-003, 1.01957135e-002,
       -1.26829259e-002, -1.13432091e-002, -1.17341457e-002,
       1.35377247e-003, -1.01904795e-002, -1.22996978e-002,
       -1.34769557e-002, -6.35519717e-003, -1.32039506e-002,
       4.16954653e-003, -3.79680819e-003, -6.40252046e-003,
       7.25465827e-003, 1.24444591e-003, 6.73016813e-003,
       -7.82666262e-003, -2.81606539e-004, -1.98698210e-004,
       -2.19355617e-003, 1.74809044e-004, -8.78128596e-003,
       -3.55455722e-003, 7.82752130e-003, -5.44988026e-004,
       -2.79960735e-003, -4.54810594e-004, 5.65208122e-003,
       -5.10296412e-003, -1.31857046e-003, -4.96887276e-003,
       -1.86658581e-003, -1.48940668e-003, -1.37281436e-002,
       3.12734209e-003, -1.89220358e-003, -3.89941083e-003,
       -4.61207842e-003, 5.89782279e-003, -6.16963115e-003,
       7.02841440e-004, 1.26795098e-002, 1.98159250e-003,
       -3.23903048e-004, -1.36528686e-002, -1.35894204e-002,
       -4.07430716e-003, 7.01370370e-003, -2.69627315e-004,
       6.57661725e-003, -2.20874394e-003, -9.58733167e-003,
       2.04101161e-005, -8.59937072e-003, -1.56446882e-002,
       -3.90055962e-003, 8.89828603e-004, 2.76845065e-004,
       -2.26110933e-005, 1.95114352e-002, -1.42646888e-002,
       2.46857689e-003, -2.42446526e-003, -1.00777103e-002,
       5.97412698e-003, 2.82866205e-003, 2.69237149e-004,
       -6.20059343e-003, -3.15541215e-003, -1.45983230e-002,
       -2.25818763e-003, 3.73268304e-005, 1.58128061e-003,
       -2.48928112e-003, 1.87412719e-003, 3.63091403e-003,
       7.11812451e-003, 2.54763048e-002, -1.00210253e-002,
       -1.51437987e-003, -4.40296764e-003, -8.98803491e-003,
       2.11071805e-003, 8.94447416e-003, 8.60339869e-003,
       -7.23307254e-003, 1.09769944e-002, -5.92344161e-003,
       -1.10180932e-003, -6.07102411e-003, -8.17164499e-003,
       6.01591449e-003, -7.90015794e-004, -5.56380313e-004,
       -7.85995740e-003, -4.59830975e-003, -7.43139256e-003,
       -9.04822489e-004, 8.10416648e-004, 8.18606839e-003,
       1.38890762e-002, 1.63389195e-003, -1.88545615e-003,
       -1.19655356e-002, 1.38351321e-002, 5.68203349e-003,
       4.98560350e-003, 7.81810086e-004, 1.42898960e-002,
       -8.26229993e-003, 8.38097592e-004, 3.21433553e-003,
       -1.26173720e-002, 5.88482665e-003, -7.81040033e-003,
       -6.44086627e-003, -7.43664149e-003, -1.23330858e-002,
       -4.33594338e-004, 5.87104307e-003, 2.14415090e-003,
       -5.58113120e-003, 5.88438846e-003, -1.10925909e-003,
       -8.44140165e-003, -8.96916166e-003, -4.31378745e-003,
       -1.37996190e-004, 3.79095087e-003, -3.68048158e-003,
       -1.57087371e-002, -7.08969496e-003, -4.06631734e-003,
       1.03021471e-003, 6.39942416e-004, 3.92739836e-004,
       -4.48087230e-003, 6.85744034e-003, 4.93816275e-004,
       1.45876016e-002, 1.65601596e-002, 8.23158678e-003,
       3.37093230e-003, 1.19377710e-002, -7.07057305e-003,
       -2.55833124e-003, 1.32868160e-003, -5.25283767e-003,
       -6.08458277e-003, -4.13865596e-003, -5.25896344e-003,
       -3.60572967e-003, -3.15480493e-003, -3.36542237e-003,
       -1.13775562e-002, 1.44454488e-003, -2.83379050e-004,
       1.71859264e-002, 8.95682070e-003, 1.07702399e-002,
       -2.27837055e-003, -5.67931635e-003, -1.76211130e-002,
       -4.03794646e-003, 1.01429236e-003, -5.75754209e-004,
       6.11239346e-003, 1.73359774e-002, -2.12975056e-003,
       -4.71130246e-003, -8.42289708e-004, -8.68316647e-003,
       -7.44945230e-003, 4.24330914e-003, 1.30582275e-003,
       -7.95169920e-003, 1.30348206e-002, -4.42290155e-004,
       7.69419188e-004, 1.60851376e-003, -2.68973061e-003,
       -1.57949179e-002, -3.61114414e-003, -2.23747990e-003,
       1.46983955e-002, 1.52729731e-002, -2.88918475e-003,
       -1.31669827e-002, -1.12914043e-002, -2.06385050e-002,
       -1.58536620e-002, -6.51164632e-003, -3.50584299e-003,
       1.17285550e-002, 1.30608678e-002, -3.73742171e-003,
       -6.65533124e-003, -5.48951747e-003, -1.57477409e-002,
       -5.67544904e-003, 1.49012101e-003, -2.45895400e-003,
       -8.46946239e-003, 5.77250379e-004, 6.94181072e-003,
       2.48405314e-003, 3.62062152e-003, -1.62120734e-003,
       -8.20813701e-004, -1.85468671e-004, -6.27438445e-003,
       -1.43432366e-002, 1.12978823e-003, -5.45863807e-003,
       -3.84143932e-004, 8.28948431e-003, 3.42869270e-003,
       -1.87771395e-002, -1.86172908e-003, -2.21272418e-003,
       4.88738483e-003, 1.67944692e-002, 1.96677148e-002,
       -3.39847407e-003, -2.74899811e-003, -1.26937283e-002,
       -1.53682195e-002, -3.95302288e-003, -1.95625168e-003,
       6.89989189e-004, 2.95644887e-002, 1.43707935e-002,
       2.88581848e-003, 4.12125932e-003, -1.14265457e-002,
       -1.15727412e-003, -6.29148213e-003, -9.76818986e-003,
       -2.14367919e-003, 1.06915017e-003, 6.72357448e-004,
       2.24516308e-003, 8.90795887e-003, 2.50651711e-003,
       9.69646499e-003, 6.77665090e-003, -3.40704806e-003,
       -5.24200220e-003, -1.27844019e-002, -7.57592916e-003,
       -7.51465606e-003, 1.08164344e-002, 1.36436392e-002,
       -2.80172867e-003, 1.22750748e-003, -1.39002886e-003,
       6.15719147e-003, 1.06425639e-002, 3.17481579e-003,
       -4.41711716e-004, 3.27309896e-003, 3.17733781e-003,
       1.21372640e-002, 1.26523385e-002, -2.10118387e-003,
       -2.58537102e-003, -6.89056376e-003, -1.32753812e-002,
       -6.94523705e-003, 9.31842998e-003, 2.10443996e-002,
       7.32155982e-003, 9.98934172e-003, 6.30142912e-003,
       -7.04662642e-004, -1.55790057e-002, 6.54201256e-004,
       -2.76186829e-003, 9.52408090e-003, 5.24581177e-003,
       8.19032732e-003, 7.59442663e-003, 1.10373488e-002,
       -1.25226378e-003, -3.51988003e-002, 1.72920758e-003,
       1.57268008e-003, 1.15379561e-002, 5.12796547e-003,
       1.20577747e-002, 9.79565550e-003, 1.97284273e-003,
       5.73542155e-003, -1.85356801e-003, -8.03106930e-004,
       1.58482569e-003, 1.33304019e-002, 2.49382015e-002,
       2.32212190e-002, 1.31201101e-002, 8.66667461e-003,
       2.28072098e-003, -1.88058410e-002, 1.77370512e-003,
       -3.73394432e-004, 1.85019784e-002, 2.71736253e-002,
       -5.68819325e-003, 5.92697458e-003, 8.26557912e-003,
       2.42846599e-003, -3.40618901e-002, 3.70929972e-003,
       3.36037553e-003, 1.08984495e-002, -6.59929775e-003,
       -1.50622372e-002, -1.42113143e-003, 3.08852387e-003,
       2.74166316e-002, 5.43596316e-003, 1.58845112e-002,
       1.12102861e-002, 8.18047859e-003, -1.13496464e-002,
       2.11952962e-002, 1.33038387e-002, 1.29619045e-002,
       4.21450660e-003, -2.79430281e-002, -1.02805637e-003,
       -1.11708697e-003, 1.45158628e-002, 2.03432888e-002,
       3.90675478e-003, 4.77245776e-003, 9.44381114e-003,
       2.48782970e-002, 7.64396787e-003, 1.46463616e-002,
       1.10008921e-002, 1.46145290e-002, 9.59145837e-003,
       -1.39870727e-002, -5.00765489e-003, -6.08827081e-003,
       9.66448989e-003, -1.43605825e-002, 1.76718517e-003,
       -1.53066998e-003, -5.72269736e-003, -2.07072590e-002,
       -4.07588435e-003, -4.43198718e-004, -6.41008420e-003,
       3.30404006e-002, 2.03847364e-002, 1.95327122e-002,
       1.86921540e-003, -1.22815638e-003, -1.31319193e-002,
       -5.54687157e-003, -4.86602867e-003, -5.94365085e-003,
       1.01794992e-002, -6.44635130e-003, -4.16067848e-003,
       -1.60021271e-004, -4.20963997e-003, -5.25623513e-003,
       4.22924571e-003, 2.33476923e-004, -7.77830090e-003,
       4.02235128e-002, 2.01747194e-002, 3.57960002e-003,
       -1.51224853e-003, -4.39151935e-003, -3.56420153e-003,
       -9.34169535e-003, -4.60830145e-003, -1.09560667e-002,
       3.66623793e-003, -7.49014784e-004, -8.66365246e-003,
       -9.72715952e-003, -6.88215252e-003, -9.27984063e-003,
       -3.86922271e-003, -1.57553400e-003, -1.55183458e-004,
       1.26900533e-002, 1.06848953e-002, 6.58156862e-003,
       -3.62794963e-003, -1.00515957e-003, -7.34376954e-004,
       -3.56914103e-003, -4.95165540e-003, -1.30772842e-002,
       6.01259107e-003, -4.31674905e-003, -1.92049071e-002,
       -1.20626288e-002, -1.24393236e-002, -6.10110769e-003,
       -6.03939407e-003, -6.16068207e-003, -3.84326139e-003,
       4.86616278e-003, 8.25146306e-003, 3.33650829e-003,
       -3.25049926e-003, -6.37365133e-003, -4.65881778e-003,
       -2.61069462e-003, -4.99798963e-003, -7.28042796e-003,
       -1.54001359e-002, 3.14333872e-003, -4.14762879e-003,
       -7.32907839e-003, -1.35257943e-002, -1.22449361e-002,
       -3.25575890e-003, -9.27986298e-003, -2.74425116e-003,
       -6.07231108e-004, 2.00362015e-003, -5.37876552e-003,
       -8.16643704e-003, -8.96856468e-003, -9.54987761e-003,
       -8.72140808e-004, -1.54441048e-003, -7.49785872e-003,
       -1.71647631e-002, -5.01250476e-003, -9.63460933e-003,
       -6.32957276e-003, 5.36715270e-005, -2.66106729e-003,
       2.24591466e-003, -2.31772452e-003, -3.19722516e-004,
       -7.07864389e-003, -5.63064404e-003, -4.15026629e-003,
       -9.07660834e-003, -4.41754935e-003, -4.71193856e-003,
       -4.40943195e-003, -8.84525850e-003, -4.76409635e-003,
       7.94141833e-003, 2.94327009e-002, -3.86587577e-003,
       -5.94426040e-003, -7.74675841e-003, -8.19244515e-003,
       -8.28906952e-004, 3.79273226e-003, -9.02618654e-003,
       -1.41784213e-002, -9.56294872e-003, -2.01360062e-002,
       -1.14198104e-002, -1.01059051e-002, -6.80614170e-003,
       -5.07577788e-003, 7.47499696e-004, -9.63261482e-005,
       4.08740854e-003, 2.07998883e-002, 3.80944181e-003,
       -3.64967459e-003, -7.03863194e-003, -9.39432345e-003,
       9.26087232e-005, 2.75549735e-003, -1.41917290e-002,
       -1.98104549e-002, -1.83672775e-002, -2.16760170e-002,
       -7.85476062e-003, -8.25373863e-004, -4.99556772e-003,
       -1.09094335e-003, -6.45097025e-005, -5.17076021e-003,
       -8.75725783e-003, -2.94211670e-003, -1.39564127e-002,
       -6.13690587e-003, -7.65579473e-003, -3.93156661e-003,
       -2.00083852e-003, 1.13801542e-003, -6.66169217e-003,
       4.28229629e-004, 1.71322492e-003, 1.96275092e-003,
       -6.71753427e-004, -5.62853133e-003, -5.88712096e-003,
       -3.45699443e-003, -1.88529419e-004, -5.87211736e-003,
       -1.18640894e-002, -8.03631824e-003, -9.99461021e-003,
       4.39207768e-003, 4.25567152e-003, -7.68319564e-003,
       -1.58146446e-004, 2.55179056e-003, -8.18135100e-004,
       4.04436653e-003, -4.96022962e-003, 7.83729181e-003,
       1.08369868e-002, 4.65566758e-004, -4.82928939e-003,
       -1.97627247e-004, -2.52703088e-003, -1.20455045e-002,
       -6.97130756e-003, -1.89096276e-002, -1.42514380e-002,
       -9.17788129e-003, -9.65419319e-003, -8.81519821e-003,
       -8.89412966e-003, -8.94102827e-003, -1.02400267e-002,
       1.49352672e-002, -1.83755462e-003, -6.39606640e-003,
       -1.27282394e-002, -1.42660309e-002, -1.82636604e-002,
       4.03462257e-003, 7.10562570e-003, -7.60825584e-003,
       -7.15299137e-003, -1.95094254e-002, -1.18943295e-002,
       -3.35950940e-003, -6.14408823e-003, -1.07793510e-002,
       3.12939170e-004, -2.58102803e-003, -1.51571603e-002,
       9.78842657e-003, 5.52624231e-003, -8.34235863e-004,
       3.37120937e-003, 2.60369759e-003, -5.79434726e-003,
       -2.13341583e-002, -1.33354636e-002, -1.39103811e-002,
       1.08838947e-002, 1.39598865e-002, -6.82344846e-003,
       -1.38836950e-002, -1.62488464e-002, -2.55751666e-002,
       -1.16569931e-002, -1.18920272e-002, -9.25681554e-003,
       6.96762465e-003, 1.69238988e-002, -1.39995022e-002,
       -1.04320403e-002, -1.80071201e-002, -2.81893183e-002,
       -1.72523670e-002, -1.15253720e-002, -1.69177111e-002,
       4.07965994e-003, 1.20212352e-002, 1.43651001e-003,
       -7.54498644e-003, -1.30725643e-002, -2.31999625e-002,
       -1.26476455e-002, -8.02333374e-003, -1.10753449e-002,
       1.03107812e-002, 3.17946821e-002, -3.30782332e-003,
       -8.53128545e-003, -2.52780858e-002, -2.65214853e-002,
       -8.02285969e-003, 4.64630779e-003, 2.39591161e-003,
       -3.37506441e-004, 1.16307540e-002, 1.15589984e-002,
       -3.92379006e-003, -7.02540064e-003, -1.73408519e-002,
       -7.29426509e-003, 3.87885235e-003, 2.59688590e-003,
       -6.44871080e-003, 1.96784735e-002, 1.14162117e-002,
       -1.30609074e-003, 5.16781909e-003, -9.90250334e-003,
       -3.38989054e-003, 7.85771292e-003, -4.68207552e-004,
       3.07834893e-003, 9.29909106e-003, 7.47936824e-003,
       -2.59371521e-003, -1.62509792e-002, -1.50654167e-002,
       1.10692065e-003, 1.61887016e-002, 1.39550855e-002,
       -3.99636989e-003, 5.39649697e-003, -3.11769475e-003,
       -6.26183581e-003, -9.89729166e-003, -1.41336874e-003,
       2.87442002e-003, -2.19925423e-003, -1.23954262e-003,
       -2.44956068e-003, -5.22799417e-003, 3.73548269e-003,
       -1.94819900e-003, 3.48489545e-003, 2.17068894e-003,
       6.88988995e-003, -7.52575754e-004, -3.77831631e-003,
       -3.85292340e-003, -1.47029115e-002, -9.16004367e-003,
       -5.46548516e-003, -1.44474558e-003, 9.98747721e-003,
       7.21876742e-003, 7.92590715e-003, -2.65633251e-004,
       -1.92510546e-004, -1.47395972e-002, -2.94369669e-003,
       -1.81700021e-003, -1.58147060e-003, 8.06605536e-003,
       1.91787295e-002, 2.88066571e-003, -1.25482501e-002,
       -5.47188008e-003, -1.47101833e-002, -1.18840327e-002,
       -1.08853364e-002, -6.16332749e-003, 1.68099646e-002,
       3.32402438e-003, -2.99792504e-003, -3.27622681e-003,
       -8.45614355e-004, -1.07139889e-002, -4.36826888e-003,
       -3.56339524e-003, 3.14694154e-003, 5.46022039e-003,
       1.55599248e-002, -2.67889164e-003, -7.11864699e-003,
       -9.11002792e-003, -2.40485668e-002, -1.32725164e-002,
       -9.96237528e-003, 5.36929956e-003, 1.13131637e-002,
       1.19749829e-002, -4.32552100e-004, -1.01735089e-002,
       -2.35856627e-003, -6.07506558e-003, -2.32346286e-003,
       -3.68940644e-003, -7.07824714e-003, 8.31230951e-004,
       8.37515853e-003, -3.77972214e-003, -6.67265896e-003,
       -4.85986331e-003, -2.24808343e-002, -8.83490220e-003,
       7.00546382e-003, 8.33318196e-003, 6.45221351e-003,
       8.77349544e-003, 1.81569147e-003, 2.63823313e-003,
       -5.69756329e-003, -2.57966854e-002, -1.16433213e-002,
       -1.10056484e-002, 5.09939622e-003, 3.66553594e-003,
       -1.06743099e-002, -5.93050802e-003, 1.37629441e-003,
       1.02029648e-002, 1.55781433e-002, -2.21083313e-003,
       -9.08090826e-003, 1.80261617e-003, -7.22871907e-003,
       2.91608879e-003, 6.25597662e-004, 6.69082301e-003,
       -2.77212891e-003, -2.92407945e-002, -1.14638908e-002,
       1.75392849e-003, 8.64784699e-003, -2.87521258e-003,
       7.19694595e-004, 1.13363727e-003, 4.48932406e-003,
       3.00230784e-003, 1.37012824e-002, -2.21534632e-003,
       7.31907925e-003, 6.18503569e-003, -1.55300496e-003,
       -7.36142928e-003, -5.66311646e-003, -5.12995408e-004,
       8.12247209e-003, -6.20974414e-003, -1.20389387e-002,
       -8.23713653e-003, -4.68670111e-003, -6.44083088e-003,
       7.41795218e-003, 5.77610219e-004, -1.16909819e-003,
       3.12394351e-002, 1.49358185e-002, -8.25502444e-003,
       -8.75419099e-003, -8.48068390e-003, -8.62313085e-004,
       3.87450983e-003, 1.51631795e-003, 5.48406923e-003,
       1.80179637e-003, -1.68846622e-002, -1.41669903e-002,
       -7.35987269e-004, 9.29563394e-005, 1.49192696e-003,
       7.68607389e-003, 6.07914245e-003, 9.10800416e-003,
       3.59899215e-002, 1.88862346e-003, -1.33647462e-002,
       -6.74516242e-003, -6.77749468e-003, -3.48976377e-004,
       -1.13794964e-003, -3.99243599e-003, -1.08132176e-002,
       6.18528901e-003, 1.90089818e-003, -1.29667828e-002,
       -9.90020297e-003, -7.98830111e-003, -4.63481480e-003,
       -3.91676649e-003, -3.38689424e-003, -1.91626954e-003,
       5.71233628e-004, 1.20317144e-002, 4.84243594e-003,
       -4.33173589e-003, -4.80978936e-003, -2.39276956e-003,
       -1.35723148e-002, -1.27148945e-002, -1.38216922e-002,
       2.40432238e-003, 5.44003118e-003, -1.77492462e-002,
       -8.97195935e-003, -1.21618984e-002, -1.23085268e-002,
       -1.08067635e-002, -7.96770211e-003, -8.03019851e-003,
       5.90499607e-004, 2.27148272e-002, -4.15134506e-004,
       -1.17541105e-002, -1.38401920e-002, -1.38861807e-002,
       -1.10937562e-002, -2.78014271e-003, -7.88293220e-003,
       -2.11103004e-003, -3.65518290e-003, -6.31457707e-003,
       -5.03193215e-003, -3.74861457e-003, -1.00295236e-002,
       -6.54976675e-003, 1.59401284e-003, -4.77624685e-003,
       -4.21856623e-003, -7.80149642e-003, -8.48774216e-004,
       -1.86444097e-003, 2.33864598e-003, -8.18739086e-003,
       1.56944841e-002, 4.77300305e-003, -1.51348964e-003,
       6.57025119e-003, -1.21049453e-002, 3.29015282e-004,
       1.77081348e-003, 3.02923401e-003, 1.97121836e-002,
       1.96292084e-002, 9.78318136e-003, -3.07284272e-003,
       -5.15959039e-003, -1.83651634e-002, -6.89755846e-003,
       3.16310721e-003, 1.50218168e-002, 2.14872509e-002,
       -7.95937981e-003, 1.29074324e-003, -7.39482092e-003,
       2.34352279e-004, 1.62379500e-002, 2.14978633e-003,
       -2.58897152e-003, -3.40667972e-003, -1.26381805e-002,
       -1.00962503e-003, -4.79662837e-003, -1.29216500e-002,
       -1.74542870e-002, -3.06238164e-003, -2.17818115e-002,
       -9.18377191e-003, -3.71315773e-003, -4.74681333e-003,
       1.98975652e-002, 9.78664402e-003, -4.63903276e-003,
       -2.18309835e-003, -3.27950390e-003, -8.34074151e-003,
       -5.80604468e-003, 4.32384433e-003, 1.30929351e-002,
       2.35308390e-002, 1.98013382e-003, -1.33512560e-002,
       -1.91933494e-002, -1.05917864e-002, -1.89998224e-002,
       -1.00445831e-002, -1.32148457e-003, 2.03741211e-002,
       -1.10325534e-002, -7.22284336e-003, -3.07220011e-003,
       -7.82526098e-003, -6.11965870e-003, -1.00655099e-002,
       1.58836215e-003, -1.47087278e-003, -1.26293134e-002,
       -1.15246922e-002, -2.21106317e-003, -2.47956580e-003,
       -2.80736131e-003, -3.08453734e-003, 2.75216415e-003,
       1.40203268e-003, -6.69292314e-003, -1.52285118e-002,
       2.26313956e-002, -2.37560555e-004, -3.89863132e-003,
       -1.21886833e-002, -1.40425200e-002, -1.38256820e-002,
       -2.07127014e-004, 1.58742943e-004, 2.21107993e-002,
       4.80845291e-003, 4.05817945e-003, -4.42835921e-003,
       -9.33818612e-003, -5.15994756e-003, -9.94819589e-003,
       -3.98204010e-003, 2.05166521e-003, 1.24364998e-002,
       -7.56582199e-003, 5.83398668e-003, -4.60864278e-003,
       -7.22989719e-003, 1.92434221e-004, -3.71961738e-003,
       -4.12808824e-003, -1.84018537e-003, -1.34557355e-002,
       -1.18823852e-002, -1.27655594e-003, -4.09153337e-003,
       5.58725791e-003, 3.91258532e-003, 4.68981266e-003,
       6.70198584e-003, 8.66739545e-003, -1.20278979e-002,
       -1.13087948e-002, 1.03025772e-002, 1.35361648e-003,
       -1.05488328e-002, -9.07469075e-003, -1.20593496e-002,
       -9.08422098e-003, -1.92094559e-003, -4.62475466e-003,
       -5.46177709e-003, 1.08913407e-002, -3.04842670e-003,
       1.05268555e-002, 4.95394180e-003, 1.06128491e-002,
       1.02312898e-003, 8.88634101e-003, -5.40862232e-003,
       -2.18115579e-002, -5.79866488e-003, -8.22137576e-003,
       5.35040279e-004, 7.31622335e-003, 5.66627877e-003,
       -6.42433355e-004, -8.52966878e-006, -2.24765744e-002,
       -1.65996253e-002, -4.82392963e-003, -7.35877221e-003,
       1.00105032e-002, 2.21881270e-002, -1.98144140e-003,
       -1.08594669e-003, -1.14782294e-002, -2.02382915e-002,
       -2.99795205e-003, -7.23329256e-004, -5.01612155e-003,
       3.29915551e-003, 8.21886305e-003, 1.02214599e-002,
       -7.12551456e-003, 2.75741564e-003, -5.39278286e-003,
       1.03504804e-003, -1.34697265e-003, 5.06898432e-005,
       7.81443622e-003, 1.83959939e-002, -4.40862123e-003,
       -9.66958143e-003, -6.03222521e-003, -4.92013618e-003,
       -5.94207970e-003, 3.95231228e-003, 3.26829078e-003,
       7.00719981e-003, 9.43075214e-003, -9.02188709e-004,
       -2.00858945e-003, -1.17999027e-002, -1.99351292e-002,
       1.85791031e-003, 6.66345563e-003, 9.33362078e-003,
       -2.38439679e-004, 6.59253099e-004, -3.65272048e-003,
       -1.33068545e-003, -9.36454814e-003, -1.08029684e-002,
       2.07520439e-003, 6.92064827e-003, 8.28587636e-003,
       8.91162921e-003, 6.05472876e-003, -1.06263598e-002,
       -8.25165492e-003, -5.47031453e-003, -5.54056233e-003,
       -3.85612505e-003, 6.44730870e-003, 8.74138670e-004,
       -4.19364515e-004, -6.19854266e-003, -1.28893629e-002,
       -3.16342805e-004, 3.41531867e-003, -9.85739660e-003,
       3.54787870e-003, 4.07149270e-003, -1.78080599e-003,
       -3.63792735e-003, -9.36531369e-003, -8.78421776e-003,
       -1.18907634e-003, 6.75834075e-004, -1.39332807e-003,
       1.13426503e-002, 7.52976863e-003, -5.96959749e-003,
       -8.21231108e-004, 6.39154390e-003, -1.22659653e-002,
       -8.17747321e-003, -4.39803256e-003, 4.17040382e-003,
       -4.24520520e-004, -3.07670503e-004, -8.44958331e-003,
       -8.64199921e-003, -9.55656916e-003, -1.11459838e-002,
       -2.82985065e-003, 2.81255832e-003, -2.01974437e-003,
       -5.78227977e-004, 1.17766010e-002, -2.40462925e-003,
       -5.91662945e-003, 1.64836980e-002, -3.77703924e-003,
       -7.90162291e-003, -3.63438833e-003, 1.12921109e-004,
       6.82948204e-003, 2.72781658e-003, -6.71181874e-003,
       -2.32655159e-003, -4.38276166e-003, -8.50467291e-003,
       -5.24738058e-003, -3.27794044e-003, -7.17099058e-003,
       -5.03113912e-003, 1.98051962e-003, -3.22642829e-003,
       8.00475385e-003, -8.28471500e-003, -9.33141913e-003,
       -1.23494014e-003, 3.65829375e-003, -1.47237694e-002,
       9.68132075e-003, 1.34574780e-002, -2.44220044e-003,
       -2.31691846e-003, 1.99338351e-003, -3.93983023e-003,
       -3.31511092e-003, 3.32950568e-003, 2.17015622e-003,
       1.30137438e-002, 1.25621846e-002, -7.38041662e-003,
       7.90735416e-004, -2.43634987e-003, -6.30548177e-003,
       -1.08672185e-002, 8.88571050e-003, 4.57096193e-003,
       -4.97459341e-003, -1.29310484e-003, -6.10413123e-003,
       -2.37419852e-003, -2.23831609e-002, -1.13026015e-002,
       -6.76117232e-003, 6.91550365e-003, -1.18225291e-002,
       1.10828714e-003, -6.98941643e-004, -3.41330515e-003,
       -1.08372420e-002, -5.29514998e-003, -9.53239482e-003,
       4.07819171e-004, 6.09477842e-003, 2.81192036e-003,
       9.89792217e-003, 8.28676578e-003, -9.83948447e-003,
       -9.49493609e-003, -1.62688140e-002, -8.98812432e-003,
       -1.23971505e-002, 4.60015843e-003, 2.29079113e-003,
       2.24290732e-002, 8.07753671e-003, -5.93222491e-003,
       -3.82696558e-003, 3.29631311e-003, -1.51345739e-002,
       -1.68493167e-002, -1.19286752e-003, 1.86544694e-002,
       1.70428713e-003, 1.11746613e-003, 2.91504292e-003,
       -1.15683060e-002, -2.89192498e-002, -1.56237055e-002,
       2.34867772e-003, 9.91643965e-003, 9.95314308e-003,
       -2.44727614e-003, 5.75412111e-003, 1.04222698e-002,
       2.38999352e-002, -9.25307814e-003, -1.35005275e-002,
       -9.76323281e-005, 4.04500077e-003, 4.24853154e-003,
       2.46741530e-002, 7.03670271e-003, -2.26408243e-003,
       -1.11542763e-002, -2.88908072e-002, -2.24890765e-002,
       -1.09338081e-002, 3.30509921e-003, 2.34455839e-002,
       2.48296913e-002, 1.27588734e-002, 1.62794162e-002,
       2.63630021e-002, -2.42756709e-004, -1.00806579e-002,
       -8.25422176e-004, 9.12856590e-003, 2.61606909e-002,
       -1.78726427e-002, -1.01883095e-002, -4.52121906e-003,
       1.03316177e-002, 5.06276172e-003, -1.44837312e-002,
       -9.99672152e-003, -1.14493072e-002, -1.42402630e-002,
       -1.04515729e-002, -6.39428524e-003, -3.41287069e-003,
       1.97075191e-003, 1.94253866e-002, 2.63797469e-003,
       -8.93065706e-003, -1.06966207e-002, -1.12863434e-002,
       -5.22732735e-003, -4.15334525e-003, 3.37436795e-003,
       1.61002576e-002, 6.93560857e-003, 3.61911283e-004,
       -1.06287524e-002, -1.22835748e-002, -4.53395722e-003,
       -1.36588141e-002, -8.77122395e-003, -5.12099965e-003,
       1.45552838e-002, 2.63557117e-002, 1.39653133e-002,
       -4.65234602e-003, -7.31637329e-003, -1.04973400e-002,
       -7.86545977e-004, -8.22000671e-003, -5.50333643e-003,
       4.48642531e-003, -2.00373773e-002, -5.61346393e-003,
       -1.29197445e-003, -8.02939106e-003, -7.49938656e-003,
       -2.36218038e-004, -6.03956543e-003, -8.51862133e-003,
       3.75921745e-003, -9.74451751e-003, -1.33410580e-002,
       -5.92277013e-003, -8.16688407e-003, -4.95246099e-003,
       2.19969302e-002, 1.33013621e-003, -2.51266640e-003,
       7.34678004e-003, -1.21443449e-002, -1.09428465e-002,
       4.11205809e-004, -3.96424858e-003, 1.72939003e-002,
       6.30434509e-003, 1.06829684e-004, -3.91882937e-003,
       1.65243261e-002, -1.08890068e-004, -7.63095589e-003,
       -6.18655235e-003, -3.65217822e-003, -3.13301309e-004,
       -1.42166333e-003, -4.53462219e-003, -4.80188336e-003,
       2.70944642e-004, -4.77880239e-003, -6.16358081e-003,
       -8.92560743e-003, -1.05561549e-002, -6.68905396e-003,
       5.33387181e-004, -1.12394867e-002, -1.26331197e-002,
       -1.85091756e-002, -2.11982708e-002, -1.31169520e-002,
       -1.36830853e-002, -1.60770938e-002, -2.63330527e-003,
       1.66256409e-002, 1.21238350e-003, -3.17545095e-003,
       9.97500215e-003, -5.18675603e-004, 4.11579711e-003,
       -2.03904300e-003, -5.22169750e-004, 1.06487982e-002,
       2.46474706e-002, 1.64302660e-003, -1.51116843e-003,
       -5.25260111e-003, -1.10233771e-002, -1.59906056e-002,
       -1.10383769e-002, -3.67537607e-003, 2.05396898e-002,
       2.44942820e-003, -8.14440660e-003, -7.56047620e-003,
       -1.62853077e-002, -9.56913363e-003, -1.07642096e-002,
       -7.88219552e-003, -1.06842928e-002, 3.43350950e-003,
       -2.75151734e-003, -3.75689031e-003, -1.18645672e-002,
       -2.16470417e-002, -1.68697406e-002, -1.49812587e-002,
       -6.58267410e-003, -6.61224825e-003, 9.23028099e-004,
       3.13736312e-002, 1.56469562e-003, -2.77315639e-003,
       -6.06369600e-003, -4.04418167e-003, -1.23122726e-002,
       -4.17657383e-003, -6.78952783e-004, 2.67308243e-002,
       2.53126193e-002, 3.53741040e-003, -5.75312367e-003,
       -6.63452595e-003, -1.00461086e-002, -1.47906309e-002,
       -3.21021216e-004, 3.65676568e-003, 2.05921698e-002,
       -1.45317633e-002, -6.21386513e-004, -7.11614499e-003,
       -1.46925896e-002, -2.73072044e-003, -8.41062237e-003,
       -2.48627528e-003, -1.64649705e-003, -1.19134840e-002,
       -7.96072930e-003, -3.21293017e-003, -7.91389775e-003,
       -6.67368935e-004, -1.88558886e-004, 9.36726388e-003,
       9.55250696e-004, -1.87395001e-003, -9.26721748e-003,
       1.55970566e-002, 3.81329143e-003, -3.53708910e-003,
       -1.04415361e-002, 8.80598836e-003, -6.19836524e-003,
       4.77150735e-003, 1.03197638e-002, 1.41760772e-002,
       1.35131758e-002, 6.96680928e-003, -6.18515478e-005,
       -7.49762869e-003, -1.15751394e-003, -4.51985793e-003,
       6.99624047e-003, 1.36692449e-002, 1.64779797e-002,
       -1.49014900e-002, -8.17841571e-003, -5.23650320e-003,
       5.39546227e-003, 8.82326439e-003, 8.46830290e-003,
       -4.44928929e-003, -9.11582541e-003, -1.75296813e-002,
       -1.23375757e-002, -6.73289364e-003, 5.83394547e-004,
       5.32284053e-003, 1.65700987e-002, -4.78017813e-004,
       -1.03663811e-002, -8.51499755e-003, -4.01895493e-003,
       -3.24087683e-003, 1.38581661e-003, 1.10646179e-004,
       2.29848106e-003, 3.31038213e-003, -6.46203000e-004,
       -1.13764196e-003, -1.93673896e-003, 9.97449271e-004,
       -1.86353805e-003, 2.08033784e-003, -2.99020298e-003,
       6.64168317e-003, 7.35626277e-003, 2.40293308e-003,
       5.23734125e-005, 5.35427313e-003, 9.28351132e-004,
       -5.44907944e-003, -5.56681305e-004, -4.42618824e-004,
       2.36496399e-003, 5.45532256e-003, -1.12202056e-002,
       -1.05824778e-002, -6.48799865e-003, -6.24472322e-003,
       -1.34171853e-002, 1.60050392e-003, -6.39190944e-003,
       -2.81964755e-003, -4.65753814e-003, -1.50408102e-002,
       -8.31935275e-003, -7.21852295e-003, -2.41076145e-002,
       1.00628547e-002, 1.33889196e-002, 3.84511333e-003,
       2.37347838e-003, -3.43037420e-004, -3.12479818e-003,
       -4.82797157e-003, 2.92776013e-003, 1.10029476e-002,
       1.48269739e-002, 2.25650072e-002, 8.01400747e-003,
       2.69932928e-003, -6.27316395e-003, -1.08543942e-002,
       -7.20509700e-003, 1.28988724e-003, 3.50982137e-003,
       -1.28948586e-002, 9.32736672e-004, -3.77053465e-003,
       -2.09384155e-003, 1.82127638e-003, -6.70464197e-003,
       -6.16193283e-003, -6.20291987e-003, -2.11807527e-002,
       -8.15212075e-003, 4.82275942e-003, 2.63978797e-003,
       -2.05911137e-003, 1.25781214e-002, 4.56093298e-003,
       -8.72694049e-003, -7.00170500e-003, -1.09244287e-002,
       1.39815276e-002, 1.80938374e-002, 4.15060483e-003,
       9.98135074e-004, -5.66805866e-005, -7.07909511e-003,
       -3.63866007e-003, 1.95465819e-003, 3.64519516e-003,
       1.10816332e-002, 1.38984928e-002, 4.26498242e-003,
       8.94332398e-003, 9.35857557e-003, 5.91232302e-003,
       -9.26373620e-003, -5.65512106e-003, 8.93176161e-003,
       -9.31605604e-003, 1.53888855e-003, -3.86410183e-003,
       -3.47052817e-003, -1.07633118e-002, -3.31070903e-003,
       -1.06443288e-002, -9.06207599e-003, -1.38775054e-002,
       -2.05539027e-003, -5.04872343e-003, -1.44409211e-002,
       -3.11769918e-003, 1.45191603e-004, 3.91813810e-004,
       -1.41630555e-002, -1.26271416e-002, -6.08023535e-003,
       9.06103849e-003, 4.17016307e-003, -7.01842038e-003,
       5.03861252e-003, -6.48391992e-003, 3.78305768e-003,
       -1.31461285e-002, -1.31788403e-002, -1.51305430e-004,
       1.47789298e-002, -6.90055825e-003, -1.41792260e-002,
       -1.11894065e-003, 5.96810458e-003, 1.56328063e-002,
       -7.26177683e-003, -1.30503699e-002, 7.24306982e-003,
       -2.58252141e-004, -5.89577528e-003, -1.20232133e-002,
       -8.62061139e-003, 1.10334391e-003, 2.20210012e-003,
       -1.44053595e-002, -1.37769431e-002, -1.15053495e-003,
       3.06511344e-003, -6.37101475e-003, -1.41516160e-002,
       -1.31488563e-002, -4.75421501e-003, -1.14205992e-002,
       -1.88526902e-002, -1.94866918e-002, 3.16052232e-003,
       1.51305264e-002, -2.83218059e-003, -8.04240908e-003,
       -1.64279575e-003, 7.78873404e-003, 1.51888588e-002,
       -3.77660827e-003, -9.06028692e-003, 4.79243090e-003,
       1.14916032e-002, 5.95841976e-003, -7.12069683e-003,
       -6.60284515e-003, 1.16135534e-002, -5.82523004e-004,
       -9.98862740e-003, -7.31975958e-003, 8.06186255e-003,
       9.49968491e-003, -4.42459388e-003, -9.91706923e-003,
       -1.61577333e-002, -2.59293690e-002, -1.39364675e-002,
       -1.39763644e-002, -1.12637775e-002, 1.01297731e-002,
       2.55879536e-002, 5.92175266e-003, 5.85020101e-003,
       1.68003084e-003, -9.08167381e-003, -1.04976185e-002,
       -7.98306614e-003, -2.51100003e-003, 1.99358612e-002,
       7.94963632e-003, 1.95794390e-003, -5.65540325e-003,
       -1.15120830e-002, -1.52420001e-002, -6.16810843e-003,
       -6.34779641e-003, -1.32987509e-003, 9.69331153e-003,
       4.09068465e-002, 2.40409151e-002, 1.42853623e-002,
       -5.13831340e-003, -1.87531989e-002, -4.19330830e-003,
       -6.08777700e-005, 1.08957877e-002, 2.55356189e-002,
       -4.56301932e-004, -1.92081870e-003, 3.09601892e-003,
       9.44285002e-003, 1.17219845e-003, 1.03593543e-002,
       -5.37342299e-003, -6.65404880e-003, 2.28484860e-003,
       -1.50019862e-002, -1.02492031e-002, -6.64984388e-003,
       1.63295437e-002, 8.26105475e-003, 2.52799150e-002,
       -1.21113064e-003, -4.25102981e-003, -5.79549139e-003,
       1.52543252e-002, 5.12183225e-003, 7.57696945e-003,
       -7.58587907e-004, -7.70559162e-003, 9.16955806e-003,
       -1.31360011e-003, -1.15162320e-003, 1.43627096e-002,
       -1.73946680e-003, -6.47474034e-003, 4.25740192e-003,
       2.43445840e-002, 9.84677114e-003, 2.96765268e-002,
       1.25716825e-003, -5.20806154e-003, 1.47535198e-003,
       1.01574301e-003, -7.44706858e-003, -8.54234863e-003,
       -1.06220006e-003, -1.33325830e-002, -1.15752332e-002,
       -8.72471649e-003, -1.02025205e-002, -2.95599806e-003,
       -2.10577942e-004, -4.85266652e-003, -8.11666716e-003,
       1.22537911e-002, 6.99935574e-003, -1.48410932e-003,
       -6.08956302e-003, -9.48859379e-003, -5.15507115e-003,
       1.57380402e-002, -5.66886878e-003, -8.12733453e-003,
       -2.29562703e-003, -2.49349363e-002, -5.25602791e-003,
       -2.09687022e-003, -4.78366902e-003, 1.16237756e-002,
       1.88537911e-002, -7.53045839e-004, 3.20372754e-003,
       1.14870304e-002, -1.21014537e-002, -4.36417642e-004,
       -2.62019079e-004, 2.54735671e-004, 5.84837282e-003,
       4.53844713e-003, 7.23457721e-004, -4.20757290e-003,
       5.66900475e-003, -2.45080609e-003, 2.61003934e-005,
       -8.38320795e-003, -1.32268732e-002, -4.73791407e-003,
       8.63885786e-003, -6.85490249e-003, -4.49330639e-003,
       -1.26338145e-002, -2.36409251e-002, -1.58813447e-002,
       -1.65705290e-002, -1.61313713e-002, 9.63340164e-004,
       3.14305797e-002, 6.26907870e-003, 6.66859001e-003,
       1.27944956e-002, -1.22435465e-002, 1.32434012e-003,
       -1.63634541e-003, -4.79026651e-003, 1.61973778e-002,
       2.38425024e-002, -1.62829776e-004, 1.12149992e-003,
       -3.26292799e-003, -2.27301307e-002, -2.77880719e-003,
       -1.13900530e-003, -3.60026187e-003, 2.22786088e-002,
       6.62313588e-003, -5.52611891e-003, -6.79176161e-003,
       -1.07714003e-002, -1.69588942e-002, -9.06600524e-003,
       -9.52260941e-003, -4.83347988e-003, 3.46550299e-003,
       3.55694164e-003, -4.76588542e-003, -6.40853215e-003,
       -6.64333231e-004, -6.61565969e-003, -1.14523247e-002,
       -5.35452319e-003, -1.86520792e-003, 1.59086741e-003,
       2.66877841e-002, -1.81422138e-003, -1.64639880e-003,
       -7.92409945e-003, -9.35934484e-003, 3.74685740e-003,
       -1.70862244e-004, 4.12260368e-003, 2.71938965e-002,
       1.95514709e-002, -1.45989889e-003, -6.11389894e-003,
       4.64922341e-004, -9.95782390e-003, -6.89656846e-003,
       -3.41019058e-003, 8.72713514e-003, 1.97181106e-002,
       -4.90215980e-003, -1.88085553e-003, -3.40675027e-003,
       -1.10322621e-003, 6.10246602e-003, -9.38881375e-003,
       -2.51341960e-004, 5.13635343e-003, -9.82219633e-003,
       -7.95165822e-003, -3.31222150e-003, -3.74582363e-003,
       -1.25983339e-002, -1.66098811e-002, -1.54336905e-002,
       -3.97173921e-003, 2.85656750e-003, -7.24476529e-003,
       2.30587032e-002, 4.05726023e-003, 1.23239064e-003,
       1.08658709e-002, -5.47270000e-004, -4.47408576e-003,
       3.33441352e-003, 7.16375140e-003, 2.47132368e-002,
       1.52223008e-002, 1.02702565e-002, 4.19308152e-003,
       -5.16968872e-003, -5.76031441e-003, 2.41554153e-004,
       2.43857037e-003, 5.06224902e-003, 1.67485103e-002,
       -1.09284557e-002, -1.39488222e-003, -5.88584458e-003,
       -8.40337202e-003, -1.31859034e-002, -9.63239092e-003,
       -4.11274051e-003, -2.82454421e-003, -9.74474568e-003,
       -2.62787961e-003, 1.17961492e-003, -9.01763979e-003,
       -1.38125650e-003, -9.79489926e-003, -1.23209215e-003,
       -1.13404100e-003, 1.89218874e-004, -4.34207823e-003,
       1.66790262e-002, 9.26737487e-003, 1.18683139e-003,
       -9.46721435e-003, -5.84921241e-003, -5.03456336e-004,
       3.39755975e-003, 4.08415031e-003, 1.46232443e-002,
       1.44857159e-002, 1.48515869e-002, 3.38623277e-003,
       -1.16165727e-003, -4.68678400e-003, 6.23760559e-003,
       5.92299458e-003, 1.58643760e-002, 1.62358303e-002,
       -7.05888355e-003, 1.27890881e-003, -2.99065886e-003,
       3.94418184e-003, -1.18009988e-002, -4.42246208e-003,
       -7.33321114e-003, 1.61378144e-003, -6.67520193e-003,
       -1.07857632e-003, 7.92562962e-003, 6.98702363e-003,
       7.04777474e-003, -6.86730677e-003, -6.89166412e-003,
       -8.31645261e-003, -1.82051049e-003, -5.70104877e-003,
       1.54612390e-002, 6.35961629e-003, -1.46580639e-003,
       1.97375007e-003, -4.26779408e-003, 1.42853921e-002,
       7.86173437e-003, 1.94557458e-002, 1.86996739e-002,
       1.26856575e-002, 1.46364095e-002, 8.22040904e-003,
       8.74023139e-003, 2.74403999e-003, 9.58386250e-003,
       1.12085640e-002, 1.89176351e-002, 3.41407815e-003,
       3.48767149e-003, 1.12172393e-002, -9.71690752e-005,
       -1.08627020e-003, -4.16801311e-003, -7.42002111e-003,
       -6.53065788e-003, -4.35467623e-003, -9.79812164e-003,
       2.29810528e-003, 4.71332483e-003, -6.50151167e-003,
       -3.00027221e-003, -2.57234694e-003, 6.79289829e-003,
       -7.22776772e-003, -1.58811118e-002, -1.36633711e-002,
       1.25033287e-002, 2.09832229e-002, 7.59580778e-003,
       8.08344781e-003, 4.46437532e-003, 4.90815844e-003,
       1.02079241e-002, 1.11095337e-002, 6.16386486e-003,
       4.25168639e-003, 1.59619804e-002, -8.44394555e-004,
       9.91187408e-004, 1.05084525e-002, 1.93732027e-002,
       8.85249488e-003, 7.26847025e-003, 3.87328281e-003,
       -3.85970250e-003, -7.32701970e-003, -1.44452788e-002,
       -2.54041329e-003, -1.03950063e-002, 6.75581209e-003,
       -9.08331759e-003, -1.48901213e-002, -1.28558176e-002,
       -7.32054934e-004, -1.02993911e-002, -1.36080943e-002,
       -2.36628135e-003, -6.85615744e-003, 7.23016215e-003,
       -9.10965167e-003, -1.20838201e-002, -7.36318575e-003,
       1.01171583e-002, 2.45883106e-003, -5.98403579e-003,
       -4.07007802e-003, 6.35507458e-004, 1.41328871e-002,
       4.08796174e-003, 8.48687533e-003, 6.76552020e-003,
       9.54426825e-003, 3.55884619e-003, -1.52307528e-003,
       -2.63909716e-003, -2.23953719e-003, 8.47844500e-003,
       1.63146807e-003, 3.10317148e-003, 7.32813450e-003,
       -1.25991378e-003, -7.27506168e-003, -6.82812044e-003,
       -2.14788411e-003, -2.45326920e-003, 5.57376631e-003,
       -5.77350240e-003, -9.43749864e-003, -9.05677862e-003,
       8.44522472e-003, -2.98057031e-003, -5.51670184e-003,
       -7.70400278e-003, -9.87613387e-003, -6.02348847e-003,
       -1.07528996e-002, -1.01363109e-002, -3.38379614e-004,
       1.83048882e-002, 4.93571861e-003, 2.10724119e-003,
       -7.97354791e-004, -1.84092263e-003, 5.98502578e-003,
       -5.93368546e-004, 1.49095803e-003, 6.63898000e-003,
       1.93335302e-002, 7.17204995e-003, 3.50805023e-003,
       -9.27477889e-003, -1.05970707e-002, -1.02508895e-003,
       -2.53188573e-005, -1.96968857e-003, 1.71793979e-002,
       6.41731359e-003, -5.42676356e-003, -9.93878394e-003,
       -1.31023088e-002, -2.35706773e-002, -7.99391046e-003,
       -1.38308136e-002, -1.19262887e-002, -1.96641916e-003,
       2.08501685e-002, 3.73805198e-003, -2.05194205e-003,
       -1.10537671e-002, -3.07198446e-002, -6.74553029e-003,
       -1.43038398e-002, -5.83774550e-003, 1.95020474e-002,
       2.40119509e-002, 1.72560709e-003, -9.58707067e-004,
       -9.60963033e-003, -9.20547359e-003, 1.17425295e-003,
       1.76484371e-003, 1.11478835e-003, 2.17302702e-002,
       2.33779550e-002, 1.08763212e-002, 4.09516972e-003,
       -1.34273572e-003, 2.82501080e-003, 6.14096737e-003,
       -4.13751183e-003, 8.42900295e-003, 2.68971082e-002,
       9.50285699e-003, -6.90394267e-003, -7.31539307e-003,
       -1.53084528e-002, -2.26383023e-002, 5.18960413e-003,
       -2.93675368e-003, 2.28228187e-003, 7.04651745e-003,
       -7.51247955e-003, -8.54851305e-003, -8.60383210e-004,
       2.90868571e-003, 2.35939119e-003, 1.80361141e-002,
       8.29343032e-003, -1.06482592e-003, -7.68408063e-004,
       -1.92514795e-003, 2.08882452e-003, 2.10895014e-004,
       6.18485129e-003, -1.80691807e-003, 1.78670529e-002,
       -2.40550819e-003, 5.50000416e-003, 7.64016109e-003,
       -4.10989253e-003, 4.91038803e-003, 9.14995931e-003,
       1.59323514e-002, 1.95944831e-002, 2.40617357e-002,
       1.29556721e-002, 7.32840225e-003, 1.10318810e-002 ]
